#define CONV1_WT {-5133, -6346, 15618, 8046, 1626, -11557, -6722, 4730, 14606, -15771, 2909, 13927, -7468, -5517, 13196, 15111, -5435, -12725, 12343, -2583, 20424, -6902, 15284, 6531, 2958, 8492, 5624, 8721, 11169, -4637, 8505, -5351, -6712, -82, -17356, -1567, -10004, 4937, 14367, 13303, -7640, -14677, -11588, 3580, 7887, -4306, -14985, -15087, 3479, -7283, -9485, 15265, -16571, 8921, 3602, -12091, -5791, -8984, 357, -6791, -2968, -9818, 286, -11545, 10142, -2565, -7413, -885, -9787, 5731, -9628, -6136, 10717, -4297, 3869, -12797, -11801, 17536, -3577, 20251, -19126, 5947, 1169, -6379, -4265, -9967, -8463, 15307, -4395, 15455, -14937, 12278, -14131, 10988, -4144, -4663, 19997, -7483, 8577, -18633, 3830, -12976, 2984, 895, -5607, 8771, 2134, 4207, 3172, 2142, 11329, -5499, 16072, -651, -2559, 5537, -18222, -1357, -5780, 4803, 14906, -14565, -7593, 17165, -18093, 9029, 12587, -6861, 14307, 9524, 14588, -5019, -16800, 9281, -4046, -13366, -14970, -16819, 14735, 16822, -567, 14798, -971, 2689}
#define CONV1_BIAS {-6987, -1591, -3953, -1558, -551, -1170, -1919, -8994, 1757, 3595, 1367, 386, 4719, 948, -1146, -4442}
#define CONV1_BIAS_LSHIFT 15
#define CONV1_OUT_RSHIFT 16

#define CONV2_WT {-664, 5528, 3404, -10935, -2475, -4812, -2095, -604, -852, 1935, 5214, -2266, -4838, -1740, -4706, 2523, -3193, 5700, 1921, -12133, -5961, 3199, -7578, -7414, -1302, -534, 5136, 448, -73, 5251, -1128, 76, 2953, 6919, 3632, -8570, -1401, -2571, -862, -5879, 1903, -5838, -595, -836, 1689, 2361, -2190, 3064, 4931, 846, 2689, 4205, -4493, -338, -4536, -1084, -8224, -4342, 6569, 913, -1070, 8637, 855, 7964, 5851, 1484, 5632, -13887, 4305, 3214, -2923, -7512, -4431, -5660, -1190, -4797, -1541, 4202, 7759, 7031, 2802, 6181, 4423, -6961, 2418, -9962, -5645, -2529, 1938, -1299, -2338, -4740, 2947, -15, 4030, 1921, -8594, 8142, 3371, 5145, -6062, 5833, -2388, 8878, -385, -1881, 3820, -3516, -318, 12767, 1806, -12185, -3146, 1903, 5287, 141, -1697, -11075, -1207, -10961, 4942, -6422, -9519, -7860, 2692, -6686, 2907, -17556, -2862, 1635, 305, 8185, -3591, -2878, -798, 642, -1884, -5000, -1357, -1790, 1071, 91, 1129, 6314, -523, -5565, -6947, 8220, 3982, 1706, 3662, 805, -348, -2939, -6527, 2091, -3622, -76, -6230, 4844, -730, 1777, -6864, 5577, 2836, 5302, 5813, -2400, -7823, -1773, 2744, 964, -9240, 348, -14296, 11749, -6293, -767, 1417, -4149, -938, 2051, 3013, -4186, -829, 1766, 3237, 2048, -11939, 1044, -11733, 6880, -2295, -360, 3326, -11932, 250, 1458, 1771, -299, 3156, -937, 1616, 3271, -5320, -3907, -6218, -832, -3780, 4484, 3582, -6992, -7049, 4690, 2747, -5148, -3770, -186, 4862, 5471, -4527, 5504, -5354, 8522, 1730, 168, 4851, -10620, -5708, -1675, -1878, -6492, -4423, -1873, 3389, 2938, -1439, 698, 1811, 9663, -2451, -2212, 8491, -11094, 5014, 1554, 2068, -7605, -7679, -6536, 2064, 3675, -822, -1437, 4014, 12536, 993, 1952, 5617, -2470, 4284, 2278, -3636, -7337, -596, -5020, 3901, -1304, -1627, 2602, 1328, 4092, 2731, 7614, 7357, -2320, 4778, -5248, -5185, -3522, -1082, -5710, 3551, -33, 1739, -2653, -357, -4355, 3455, 3446, 8860, 3826, 1760, -5277, -5977, -2397, 5573, 781, -3642, -7558, -1756, 756, 7830, 4535, -1433, 6, 4054, -2347, 959, -3967, -685, -5597, 3618, -4706, 2206, -4848, -832, 1955, 6045, 2904, -8697, 439, 3775, 1982, -3595, 310, -2469, 1442, 1106, -2941, -4386, -5570, 2694, 6634, 4594, 6936, -2581, 5832, 5398, 183, 8, -738, -4331, 1000, -2867, -485, 3644, 551, -3803, 8786, 55, 7314, 4320, 3978, 9466, -3399, 1696, -11719, -8454, 669, 7828, -8792, -4075, -2917, 3297, -10098, 7941, -1266, 9769, 2984, 5749, 8850, -2826, 3018, -110, 1810, -5555, 2363, 7064, 1991, -2162, 12937, -265, 3025, 5225, -2924, 7718, -3301, 2801, -4344, -3663, -911, 3198, 1269, 1437, -2906, -6595, -1011, 3810, -7367, -2027, 3240, 8390, -11626, 6805, -7391, -9911, 2414, 385, -3535, 4570, 3703, 2261, -18877, 4347, -3405, -13693, 1700, 5603, 4587, 544, 3168, -13985, 268, 6075, 641, 9654, 1378, -3075, 6537, -2873, 2434, -248, -2820, 1012, -2320, 1638, 1692, 372, 1136, -2788, -796, 1814, -824, 246, -1322, -1102, -989, 582, 1739, -674, -2878, -3400, -1814, 1617, 1235, -2364, -1017, -3036, 363, 881, -901, -3001, 387, -1512, -3119, 997, -2930, -2379, 818, -926, -1181, 1278, -3540, -984, -2612, 207, 1222, -1856, 1155, -466, 1144, 2173, 603, 1001, -1836, 733, -2553, -1036, -884, -1114, -2033, -2228, -2507, 406, -1548, -1086, -41, 1195, -2543, -1091, -2803, -718, -2133, -630, -651, -413, 1405, -2095, -984, 497, 1906, 210, -2733, -1918, -2446, -1088, -3227, -2093, 2275, -1849, 492, -200, -1247, -2724, 1661, -1677, 2221, 557, -1823, -2609, 1769, 501, -2947, -2160, 496, -732, -3024, -1778, -8, -258, -2507, -1777, -296, -1116, 1240, -2627, -2036, -1905, -1141, -2939, 640, 900, 23, 1185, -524, 728, -595, -2670, -959, -473, 1853, -2391, -2835, -724, 933, -949, -1073, 3, -2084, -921, 962, -1975, -2706, -2883, 976, -7565, 9300, -11225, -2183, -4978, 4793, 83, 1063, -1112, -3368, 2656, 623, -90, 7353, -8338, 6240, 1420, -492, 3541, 2276, -1717, -4027, -922, 605, -4745, -14558, -8372, -2304, 1914, -4654, 2304, 2639, 3351, -9401, 3964, 6411, 8784, 951, -1590, -3320, -10849, -13684, 3585, -2300, 524, 2520, 5450, 4907, 2081, 2327, 2619, 1455, 11411, -3927, -1846, -1760, -445, -557, -3595, -13189, -4442, 9999, -1777, -6685, -118, -2091, 6705, 1443, 3290, -3813, -3680, -368, 6437, -2301, -21570, -6450, 1757, -4233, -4604, -4671, -9031, -8780, 483, 12016, -10167, -541, 2961, -3873, 4377, 514, -4093, -7714, -5311, -1226, -7676, -6259, -1847, -6549, 3580, -2423, -2911, 5004, 6208, -3051, 2838, -1180, -7957, -7367, -6496, 995, -2488, 2528, 748, -2572, 5027, -3947, 380, 2054, 2343, 2703, -13723, -6893, 460, 1933, -4327, 2124, -4751, 5326, 2360, -1886, -2434, -1056, -2827, 835, 2428, -920, -7445, -2785, 647, 1548, -7410, 6820, -3286, -1320, -4036, 306, 815, 6119, 748, -3641, -47, -2817, -5624, -9541, -5127, -764, -630, -716, -158, 2813, -6493, 3246, 2829, 6750, 945, -1317, 2217, -4496, -7353, -2883, -6369, -6809, -146, 2633, 1740, -6315, -3027, -544, 7687, 4883, 277, 3298, 3261, 115, -2535, -3813, -10446, -10670, -2324, -2430, 3477, -5350, -5570, -4384, -1013, 2492, 6007, 808, 2632, -820, -52, 1437, -2931, 180, -11018, 1319, -3192, -5911, 6672, -4425, 7320, -10169, 3331, 1205, 2864, 1087, 3875, 176, -3808, 780, -4943, 2350, -1596, -5293, -59, 4553, 4382, -9219, -3153, 3035, 1184, -1182, 1005, 1434, -175, -233, -6212, 1508, -1385, 170, 2673, 3998, 303, 601, 1260, 5104, 2131, -1813, 4076, -1641, -2256, -2330, -7751, 705, -654, 7704, 7584, 5813, 5632, -5196, 5249, 4671, -291, -2487, -3442, -3168, 1513, 311, -2737, -3414, 2501, 7745, 5459, 4984, -1912, -8193, 970, 4916, 1209, 633, -1461, -1930, 4442, 5498, -4068, 2075, -395, 5827, 3003, 2556, -4526, -3354, 3335, 2202, 2645, 679, -1318, 1487, 4429, 1698, -7507, -1445, -9569, 8087, -7921, -4034, -2143, -6824, 330, 4498, -2471, -3804, 1920, 5410, 5541, 5510, -3518, -3699, -4655, 6000, 8780, -1794, 316, -6537, 1557, 3106, -4797, 682, 2218, -1122, 4316, 4601, -1443, -2310, -1955, 4227, -10274, 7502, -2258, -6559, 2183, 7680, -445, -6589, -1272, 613, 6712, 3789, 1563, 1017, -6253, 10678, -752, 4985, 1484, 8879, 1605, -5066, 1803, -5938, -3222, -6576, 3488, 395, 1633, 4906, -4274, 7541, 6508, 152, 3513, -1731, 9750, 1817, 1070, -4719, -6947, -5789, -2329, -3373, 4105, 7567, 7445, 6492, 1717, -2965, -535, 5900, 6815, -550, -4534, 3283, -5689, -1505, 1555, -3767, 217, 5807, 2466, 3218, 327, 8725, 2581, 3282, 5576, -6402, -1953, 11505, 436, -3314, -3235, -5598, 2976, 9005, 347, -3530, 3968, 565, 2659, 4612, -1464, -2121, -495, 7410, 963, -263, -4621, -8638, 1178, -2156, 3173, -4849, -3957, 547, -1035, -4497, -957, 11159, 8515, 2287, -2879, 417, -854, 4646, -5347, 5306, -9847, -77, -8641, 949, -12386, -3350, -5883, 10653, 4480, 3419, -7108, -2552, 2251, 8818, -4380, 5385, -10878, -913, -10143, 3345, -5420, 2852, -2491, 7191, 5461, 2077, -7772, -1031, -2067, 6788, -4116, 1114, -12971, -2281, -8289, -1323, -2811, 3705, -3490, 8941, 4923, -1728, -6155, 751, -2326, 2515, -2058, 4567, -23027, -3977, -3497, -1353, 1492, -8094, -3082, 2123, 2418, 1364, -1660, 3034, -8228, 4193, -2252, 2453, -15473, -6736, -5365, 1159, 1732, -5079, -2784, 3894, 6341, 4138, -126, 1061, -3807, 6456, 837, 4652, -11224, -5519, -8691, 2912, -3096, -2888, -861, 2288, 5978, -2919, 1018, 356, -2904, 34, 397, 2460, -6423, -2761, 2680, 4565, -6470, -5453, -965, 4374, 3004, 232, -2160, 1591, -3628, 2016, 302, 1345, -1568, -484, -6247, -2755, -9643, 503, -2520, 7916, 5895, -1711, -2001, 3339, -576, 4301, 1098, 3903, -762, 1595, 1258, 6632, 4058, -3129, -3180, 11671, 5528, 6853, -1659, 248, 714, 7071, -3397, 8248, -6658, -2464, -1444, 1720, 509, -1950, -114, 3892, 3303, 4656, -1005, 2052, -319, 6498, -6226, -3971, -385, -10509, 225, 3380, 3703, 3526, 1653, 997, 3184, 2411, -2267, -2413, 274, 1971, -2556, 591, 2682, 1372, 962, 4214, -6103, 524, 4550, 6163, 2501, -314, -3630, -803, 3464, 83, -9097, 7672, -2905, 1210, 2483, 5132, 5851, 4682, 1270, 508, 808, -946, 1199, -4293, -5808, -1483, -1880, 2257, -8883, -4264, 1335, 276, -3627, 5855, -1788, 2905, 1334, 3248, -2300, -3289, 3091, -863, -2858, -871, -17260, 1131, -5360, 64, -6284, 5752, 1724, 5583, 2815, 2166, 4328, -1531, -6708, -5684, -6117, 3010, -9797, -2106, -4615, 3184, -5711, -4961, -66, 1988, 5436, 2924, -6067, -3209, -5709, 35, -819, 4292, -12336, 4191, -6014, -2746, -10597, 7207, -2040, -217, 3358, 4457, -6888, -665, -2327, 3768, -4204, 1638, -8972, -2666, 6501, -6853, 6468, -3037, -2851, 272, -441, 1364, 188, -6574, 3703, -3366, 2895, -2014, 8587, -155, 5859, 2423, 5152, 122, -992, 2707, -4680, -3532, 4329, -4587, 1398, -5924, 4408, 7372, 8529, -4787, 1258, 3813, 6768, 4162, -4651, -9805, -2746, -6883, 4242, -1459, -387, -4829, 1, -2542, 5546, -11244, 5909, -13568, 6655, 5310, -2148, -6514, -6949, 8053, 511, -2312, -4047, -12462, -56, -8623, 8040, -10607, -5679, -2539, 2168, 643, -2420, 3593, -2687, -6196, 5567, -730, -7273, -13897, 2575, -356, 9953, -5579, -1887, 5039, -1139, 2117, -4482, 160, -1668, -6034, 5775, -3338, -2426, -11587, 4086, 3155, 688, -2328, -5034, -5962, -765, 4415, -9659, -876, -6639, 1289, 3080, -3502, -2868, -13734, 2406, -1311, 1157, -1630, 6489, -12671, -2350, -1040, -2472, -5896, -3001, -5531, 2976, -3636, -11837, -10955, 793, -1477, 4290, -4296, 5165, 2268, -7442, 6098, -2650, -2735, -491, -3063, -1060, -3034, -1744, -10431, 1840, 8517, 500, -3841, -351, 511, -8653, -690, 6814, -6792, -11988, -3796, -6563, -7063, -1678, -2644, 1039, -3180, 1088, 23, 3021, -664, -8239, 5351, 4650, -7303, -7548, -11610, 243, -8637, -6955, -5828, 3816, -2459, 5813, -53, -3438, -10435, -8264, 9744, 4463, -8082, -8912, -10306, -3144, -6537, -3993, -2460, -1397, -399, -242, -3484, -1023, 2141, -4274, 4246, 3943, -10939, -4691, -9951, -1441, -1855, -7118, -8229, -1926, -1614, 116, -2581, 2696, -2543, -5616, -684, 5858, -5493, -1297, -12398, -3525, -880, -7335, -9434, -10505, -3132, -4518, -4163, 1369, -3108, -10448, -8962, -849, -2540, -4383, -7278, 3629, 1398, 2463, -5651, -15158, -7397, -1246, -1399, 2678, 7221, -9953, -8726, 6433, -314, -4092, -9570, 7710, 138, 863, 3220, -4683, -13587, 3628, 2625, 3618, 6191, -15545, -5561, 5441, 5499, -5270, -11720, 3773, 1458, 5045, 3121, -3539, -7803, -5454, 11600, 9534, 6498, -6074, -1534, 1670, 2595, -4560, -6881, 3225, -3829, 800, 3017, 2001, -11865, 2086, 13594, -8053, 2235, -5774, -4494, 6785, 5530, 7521, 2434, -4021, -1342, -2451, 725, -880, 6201, -1540, 6009, -7152, 2907, 1405, 829, 1520, 3727, 5809, 2858, 4499, 2348, -3788, 602, -2933, 4023, -8564, 2423, 1808, 5554, -6596, 7658, -1352, 5947, 4537, -880, -2670, -451, -6500, 2982, -5724, 2392, 556, 590, 4148, -3393, 1748, 4052, 1740, 8393, 1873, -1865, -2330, 226, -5098, 4494, -2477, -62, 8, 2316, 1394, 1571, -5912, 5442, 5893, 4471, 1428, -4137, 2878, 3066, -1275, 4136, -5118, 260, -3743, 8198, 3492, 3671, -289, -6080, 2317, 6476, 1344, -1199, 616, 594, 5852, 3941, -4664, 4869, -12378, 2737, -8439, 7733, -94, -11073, -4635, 2128, -546, -3990, 4524, 1083, -1937, 3627, 2304, -2673, -8450, -688, -266, -5428, 21, -341, 1772, 3362, 419, -7305, -9021, -553, 1954, 3327, -640, -3629, -3498, 10845, 2202, 373, 6625, -1958, 3008, 2629, -3353, -4032, -6307, 49, 3776, 5369, -1826, 2666, -111, 10267, -3541, 1502, -11430, 7375, 3422, -5043, -3541, 2007, -1126, -6261, -9247, -7538, 3305, 2542, -179, -1488, -3824, -6960, 4111, 8002, 2592, -5592, 551, 793, -9693, -3338, -1367, -7439, -1221, 6330, 2113, -3522, -2097, 5117, 2065, 494, 5667, -2489, 3132, -1153, 2001, -1019, -6422, -10870, -1589, 528, -171, 926, -5725, -308, 2237, -556, 5164, -2050, 3111, 2363, 961, 1837, -2892, -5946, -4510, -236, -8767, -968, -1725, -2800, 7028, 1433, -7424, 1681, 5726, -612, 6639, 87, -2028, 835, -8738, -1898, -8075, 1934, -5553, 1172, -940, -10205, -9596, 7384, 5485, -1462, 628, -1903, -4303, -183, -3683, -401, -965, 3802, 236, 5655, 7514, -10489, 1014, 8297, 3862, -1033, -12368, -2042, 2726, 1775, -6427, -1400, -3455, 4623, 1726, 5746, 1080, -2948, 983, 4945, 4028, -2088, -1856, -5148, 1580, 2300, -3818, 1711, -2898, 3725, 129, 3539, 2782, -13009, 3917, 135, 2255, -1727, 2503, -5643, -1289, 242, -2205, 1568, 3309, -3839, -1191, 1567, -809, -3377, 341, -5447, -175, -6237, 8481, -2897, -5928, 1066, 3162, -4920, 1585, -184, 11328, -2269, -1263, 3548, -1021, 11299, 2166, 178, -9209, 4512, 9493, 2375, -3340, 14325, -2808, 2945, 13429, 5641, -686, -1967, 4979, -9963, -3831, -3664, 8361, -2887, -4293, -3536, 2391, -10196, 1635, -5487, 2652, -70, 2382, -1516, -5038, 3157, 4024, 5139, -3990, -687, -969, 1381, 4986, -1523, -1287, 3608, -4128, -7850, -2893, 4668, -432, 3973, -2347, -5080, -2829, 2564, 4290, 461, -7624, 4914, -4251, -1686, 2519, 4064, 6654, -8403, -2125, -8070, 1654, -3147, 5398, -3986, -8749, -2782, 4595, -8099, 7617, -6510, 6123, 92, -5457, 7756, 963, 4959, -2450, 1667, -10373, 3770, 11638, 9406, -3058, 7479, -5492, 2506, 9335, 880, 1582, -1836, -6635, -4005, 2666, -5472, 10062, -3328, -11075, -11114, 3935, 3186, 4601, -3803, 7076, 5079, 1503, -1106, 1753, -476, -1809, 5239, -7477, 2421, 6569, 6217, 1022, -971, -2039, 720, -733, 10149, 1194, -4481, 2430, 5419, -1136, -10132, 5428, -1558, 3003, 6159, 2047, -4487, 136, 6231, -3421, 8624, 1518, 3614, -10862, 2159, 797, -12517, -3785, -2476, -573, -1576, 2960, 124, 2751, 2553, 5419, -9500, 4882, 829, 10337, -1045, -4289, -5515, -4804, -6362, -2728, -219, 1890, 7143, 6768, -10, 3065, -6721, 1502, 5578, 14003, -5054, -7809, -365, -7619, -4598, -557, 2011, -1094, 12596, 5901, 8117, -1838, 13346, 30, 488, 7614, -8733, -6097, -426, 3478, 2245, -817, -6562, -149, 6162, -1538, -685, 4939, 2262, -149, -1727, -353, -7996, -4459, 1051, 5699, 3028, -6761, -8771, -2369, -9202, -1670, -16173, -3010, -1295, -3626, 3454, -4124, -3748, 4659, -3911, 9205, 1590, -9364, -2245, 647, -11854, 4139, -138, 15848, 2041, -5059, 504, 3395, 9022, 4345, -8416, 4801, 1790, -4578, 5911, -2623, -1450, -946, 2836, 13059, 6164, -6466, -2744, 3732, 6206, 1880, -5315, -2383, -3814, 3588, 6197, -286, 1949, 1696, 7674, 371, 404, 8, -1129, -3200, -2091, -1683, -2243, -958, -1304, -2501, -1354, -901, 1616, -43, 2365, -1106, 2373, -2889, -287, -1161, -818, -94, -1990, -1235, -2490, 2127, -1507, 184, -891, 1714, -2530, 1839, -260, 55, -1239, -1597, -136, -2400, -262, -2978, -1701, 654, -974, -3376, -1692, -3020, 2101, -2169, 374, -3048, -2130, -1077, -2462, 270, 1751, 1742, 547, -2539, 2253, -1074, 1848, 22, -2574, -2674, 1350, 1391, -106, 2354, -1621, -2720, -923, -1400, 255, 2067, 816, 326, -681, -195, -174, -291, -98, -1176, 1166, -1116, -2649, -283, -1130, -3097, -719, -1311, -660, -3091, -2892, -675, 1110, 151, 1787, -280, -896, 971, -1572, 1593, -1950, -219, 795, -1222, -360, -854, 478, 658, -156, 116, -335, 227, -1837, 518, -1147, 1896, 176, 1514, -3468, -1495, -2707, -806, 603, -232, -1197, -2112, -1478, 2186, 1937, -2756, 2127, -2990, -1185, 1645, -3287, -2362, 1533, -2756, -354, 877, 1645}
#define CONV2_BIAS {-2563, -4566, -4500, -653, -5059, -3098, 286, 262, -493, 1159, -5108, -3230, -3492, -1381, -101, -3447}
#define CONV2_BIAS_LSHIFT 14
#define CONV2_OUT_RSHIFT 17

#define CONV3_WT {4209, 5614, 3658, 735, 1404, -1794, 2749, -3346, -1702, 2859, 2517, -3678, -2821, 1601, 454, 1048, -2329, -3514, 872, -1477, 862, 1000, -1475, -1202, -397, 1343, -3591, -626, -1065, -3695, -1966, -1583, -2059, 4889, -4696, -1936, 3211, 4401, 1659, 1820, 494, -2051, -1477, 839, 523, -2666, -2213, 1048, -2887, 735, -2388, 1124, 1850, -1350, 509, 1931, -831, -711, 546, -2664, 3353, -4683, 2534, 790, -168, 265, -726, -2252, -4383, 2450, 715, -1168, -1574, -2904, -5342, 357, -26, -7913, -972, 1613, -2568, -1381, 2186, 702, -2747, -2246, -606, 918, 1815, 1780, -942, 2573, 2854, -6051, -2138, -1451, -4654, -365, -1450, 76, 1273, 1308, -3402, 1299, 3482, -3110, -9, 2310, 4392, -551, -4507, 457, 3860, 4409, 3820, 2230, 2100, 359, 2716, -662, -1198, 1433, 4551, -265, -2362, 912, 3249, -562, -2512, -1904, -4530, -882, 3624, 333, -5166, -913, -315, 15, -1396, -1825, -1911, 301, -1357, 851, 2583, 2147, -3751, 2358, 307, 1232, 188, -2380, -3257, 1206, 4202, -2781, -1100, -4845, 3376, 947, 465, 1819, -10007, 1171, 2287, 897, 1132, -1803, -285, -3161, 4421, -1816, 1414, -4669, 375, -1344, -1078, -335, -11492, -927, 3950, -680, 494, 3922, 2123, -3914, 1020, -1627, 2508, -5546, 3018, -1798, 2431, -816, 128, -218, 3736, 2723, -2062, -4332, -27, -272, 4808, -2888, 2148, 666, -3422, 206, 1128, -3941, -21, 588, -4560, -915, -5097, -6980, -6592, 2579, -5518, -8015, -4162, 1329, -8708, -1730, -288, -2802, 1998, 1126, 2458, 7948, -864, -212, -53, 3399, 8407, 818, 2390, 838, 718, -176, 3294, -1708, -1738, 1544, 3699, 3530, 2582, -531, 929, -795, 3260, -1251, 1295, 26, 1844, -531, -2653, 2602, -3889, -208, 1434, 1625, -1627, -1982, 3029, -4610, 5920, 160, 4272, -150, 2754, 1776, 1185, -82, -1064, -1895, -1410, -1892, 395, 2373, -1467, 689, -2880, -693, -2477, 71, 932, -2269, 3161, 781, 1808, -788, -1664, 1486, 435, -262, -178, -1662, 856, -902, -765, -7324, 1271, 22, -4532, -2087, -3266, 2379, -852, 101, -1412, 2282, -1813, -1492, -2869, -402, -320, -8024, -3407, 991, 1073, 6348, -2065, 1052, 2468, 3336, 1949, 176, -1694, -102, 4917, 2302, 3751, -4358, 324, 23, -2247, 2771, -308, -719, -1843, -526, 1329, -1261, 527, -276, -2090, 817, 2721, -8138, 1373, -1211, -692, 103, 228, -1558, -1521, 768, -2396, -1140, 398, 2617, 250, 325, 2547, -7967, 1370, 1453, 845, 4476, 1601, -2210, -246, 1936, -492, 2300, 295, 1316, -2648, 2266, 2254, -4740, -2144, -859, -1911, -441, -4412, 53, 1865, 2917, 627, 3283, 2579, -4015, -2250, 1426, 4202, -7615, -1159, 249, 1285, 3426, 2131, 2338, -701, 1968, 499, 942, 1906, -1382, -882, 3886, -1178, -8169, 394, 891, 3848, -850, 3810, 1256, -1268, 470, -226, -6431, -6384, 3070, 3527, -5092, -2385, -6211, 1267, 848, -4122, -2222, -5165, -1813, 2674, 2480, -2352, 2261, 702, -3743, -1631, -313, 2337, -17068, 2350, 1275, -1466, 3959, 12, -545, 3994, 1505, 2118, 1228, 957, -1095, -741, -960, 445, -15721, 786, 508, 2731, 706, 2521, -1674, 3276, 535, 2812, -1406, -4306, 1344, -388, -809, 835, -15012, 3609, -523, -7870, -4534, -4658, 844, 546, -266, -5523, 3477, 2189, -8591, -2045, 1440, -289, -2370, -4388, -2233, -10238, -4842, -6017, 1072, -1478, 997, -3189, 2131, 2848, -13761, 84, 1145, -1069, -887, -7126, -2060, -6433, -787, -3099, -296, 1067, -470, -4612, -177, 3259, -5057, -3699, 2563, -276, 91, -6940, 808, 982, 2392, 398, 76, 9356, 830, 1665, 198, 1877, 222, -747, -1007, 5871, 3024, 4890, -1603, -4050, -406, -2593, 378, 1609, 1289, -2977, 2723, 2914, -3875, -4352, 2441, 2595, -1910, -4499, 1776, 1345, 1842, -446, -68, 2833, -508, 91, -2644, -3246, 800, -236, -3321, -6, -2197, 701, -1982, -226, 3681, -236, -1897, 1465, 3192, 2432, -1658, 2077, -499, 3664, 3855, 4704, 1412, -1146, -927, 3424, 2378, 1659, 1787, 2083, 2551, 1870, -1082, -2862, 2491, 1082, -1783, 2899, -294, 628, -1250, -1999, 4031, -1188, 1371, 164, 1102, 250, 2880, -104, -1176, 772, 1978, 3397, -2529, -1546, 2056, -3331, -3513, -3403, -1968, 862, -2700, -633, -2084, -1946, -939, -2920, -3626, 136, -1807, 250, 555, 507, -3050, -2711, 157, 2153, 1550, 149, -790, -1623, -3129, 4498, 455, 1555, 214, 2099, -745, -305, -1098, -2615, -326, -218, 568, 1795, 249, -2897, -4727, 789, 1322, 764, 4232, 4328, 695, -2293, 66, -7925, 1450, 3649, -597, -712, -549, 2026, -2963, 843, 1059, 2707, -13650, 2975, -1372, 932, -436, -2076, -466, -33, -3332, -683, 1155, -589, 931, -1189, -2642, 1491, -13746, 1323, 1430, 981, 3679, -2254, -1010, 3618, -118, -1051, 402, -1511, 761, 4527, 1568, 2959, -12569, 2657, 190, 2853, 1140, -3605, -398, -7740, 1897, 1405, -296, -3009, 133, 3918, -1241, -1072, -8110, 2225, -817, -1130, 1535, 47, 2050, -2539, 192, 1846, -64, 2058, -594, 1948, 2834, 1057, -9575, 1900, 635, 1253, 1009, 455, 1950, -5615, -1811, 1849, -1121, -2980, 3272, -1722, 2952, -952, -7291, -607, -763, -2951, -2215, -4237, 991, -539, -713, -2601, -389, 511, -2076, 2147, -205, 3096, 5104, -2360, -282, -518, 4367, 1395, -1680, -4509, 40, 2303, 1567, 2562, -4110, 498, -581, 1324, -246, -2248, -972, 3184, -200, 5633, -1376, -3075, -5610, -1431, -2123, -1986, 2910, -2971, -4401, -4637, 3970, 465, 484, -486, 1967, -2917, 2036, 4917, 1530, 4262, -820, -1197, -685, -862, 3549, 4068, -7403, 1372, 20, -211, -1619, -1071, -980, -31, 39, 2471, 556, 3418, -2047, -4693, -717, 268, -7219, 70, 1715, -585, -4661, 3494, -1640, -1091, -1956, -1885, 408, -2756, -310, 2265, -3329, -1552, -10507, -503, -1128, 2922, 1733, 180, -43, 806, 1455, 551, 2868, 555, 4525, -2810, 3098, -2248, 3478, -1550, 771, 1756, -91, 1286, 2171, 4865, -2120, 66, 382, -49, 586, -3895, -2168, -135, 145, 241, -1393, -6367, -2380, -7298, -191, 696, -417, -3765, 4177, 1297, -3647, -5491, 1873, -4327, 876, -5473, 1082, 1958, -4187, -1981, 350, -1026, -2656, -854, -1970, -1570, 909, -3468, 468, -1129, -3893, -7, -1625, -1962, -1768, 2342, -466, -108, -5133, -2695, -1287, -1924, -1287, -2346, -2289, -1150, 1531, -1250, -665, 2673, 855, 2177, -1857, -2001, -1100, -487, 3034, 1820, -2778, 3598, 3242, -3600, 5346, 157, 288, 2870, 3726, -481, -1675, -2056, 2901, 4863, -807, 1183, -2461, 4821, 1383, 332, -3848, 1280, -2320, 3642, -1763, 1450, -480, -4676, 690, 1518, -10792, -7319, 2315, 4860, -4159, -2700, -1711, 2383, -297, 1950, -2884, 1496, -1444, -1939, 411, -1037, -2229, -2524, 546, -2288, -2017, -130, -3928, 380, 1058, -1012, -2638, -7801, -557, 2639, 974, -403, 904, 4910, -5299, 1021, 3450, 4067, -9354, -516, -1099, -3751, -3666, -6363, 2433, 486, -763, -1120, -1296, -1237, -3568, -1276, -1999, 386, -8530, -1791, 505, 135, 1361, -1299, 761, 4850, 484, 4489, 1224, 196, -3349, 5558, 2016, 2357, -7413, 5522, -49, -1449, 496, -3022, -638, -2785, -8, -3058, 1800, 127, -810, -3169, 2990, -1466, -5492, -3492, -1900, 3664, 874, 811, -623, -2556, -3520, 1826, -2287, -1370, 1993, -1117, -1477, -754, -5087, 987, 549, -168, 2123, -689, -1773, -2933, 897, 2860, 1376, -835, 1808, 1621, 2808, -1425, 2653, 3145, 2306, 2548, 2582, 1868, -2364, 4216, 3435, 5673, 298, 1997, 141, 7252, 3861, 3555, 5170, 7245, -870, -2682, -870, -2145, 1596, 2816, -4478, -3735, 1620, 1058, 224, 667, -2927, -157, -1820, -1880, 98, -4257, -3953, -3678, 1291, -4277, -2047, -4501, -956, -1908, -1103, -2464, -2098, -3662, -1850, -3342, 567, 3310, 6821, 1885, 401, -732, 4990, 3471, -642, 225, 2677, 5544, 3067, 575, -267, 1904, -468, 1216, 1480, -709, 251, 1079, 3510, 48, -2168, -3353, 2490, 4936, -968, 1366, 752, -2190, 981, -765, 2010, -2196, 482, 2635, -264, -2780, 2048, 1300, -2248, -1464, 4372, 3594, -1971, -165, 1981, -831, 2126, 247, -1294, -24, 4026, 1171, -8357, -6047, -3497, 5680, 48, 3171, 453, 3278, 203, -279, -1012, -2588, 2336, -218, 1312, 941, -7177, -4621, -5373, 5447, 1049, 2835, 2448, 2543, -830, -2206, 1377, -3542, -2079, -2663, -1007, -878, -7956, -7232, -4920, 5415, -2788, 1473, -578, 1774, -1694, -1844, -1747, 723, 1330, -1447, -1780, -358, -753, -261, 336, 2310, -997, -191, 4338, -530, 455, 3643, 3706, -565, -731, -825, -166, 4398, 551, 2121, -1933, 5859, 2644, 238, 6792, 5783, 222, -2330, 695, -2824, 990, -2008, 1870, -1163, 985, 3456, -538, -1202, 2379, 718, 4064, 617, -2485, -322, -164, -2030, 900, -226, -1795, -2612, -343, -1907, -1849, -771, -1941, -521, -2086, -1655, -568, 258, -2560, -578, 1473, -734, 1565, -3169, -2500, 1985, 565, 28, -2760, 844, -2029, -952, -1348, -669, 286, -1418, -409, -2879, -704, -2504, -406, 1315, -1882, -1391, -2456, -1388, -410, -3237, -1176, 5335, 241, 6162, -193, -833, -1835, -2495, -6745, -6830, 5320, -2161, -4032, -4284, 6620, 88, 541, 2035, -131, 533, 459, -180, 227, 192, -1157, 1534, 2373, 495, -58, 3031, 4923, 5572, -128, -845, 142, -2319, 401, 4023, 610, 917, 4910, 4004, -1457, -986, 7036, 238, 3966, -2423, 1392, 421, 4490, -1825, 2037, 2550, 3868, 115, 2951, 4508, -185, 5756, 2336, 5870, -54, 4131, 1920, 1886, 3533, 1052, 537, 469, 3000, 3887, 398, -2207, -570, 3551, 2536, 186, -855, 3900, 233, 635, 1318, 559, -1388, -479, -264, 1186, -2211, -3689, 1931, 1494, 1503, -764, -4326, 1741, -780, -1777, 568, -4939, 256, -84, 2469, 2615, 1833, -610, -1400, 3295, -2181, -1202, -3876, 2838, 1499, -1811, 2169, -6299, -542, 3933, 77, 365, 1444, -112, -2447, 3589, -2307, 3765, -1911, -1616, 1197, 908, -1196, -5919, 425, 1885, 247, 2538, 2297, -2151, -4162, -916, -2454, 1564, -3129, -890, -325, -5300, -3447, -5292, 1879, 198, 1218, -227, 2813, 531, -5612, 69, 1346, 1714, 1778, -5409, 795, -8922, -6331, -5324, 962, -4310, -3268, -3268, 353, 1554, -11859, -913, 1703, 1291, 2423, -2938, 670, -6686, -3238, -1856, -1436, -476, -656, -3347, 1271, 1038, -2490, -1074, 2383, -3299, 2738, -4852, 2300}
#define CONV3_BIAS {1470, -2978, 4172, 1166, 6971, -7288, 1291, -4779, 303, 1275, -1145, -650, -5676, 1853, 1808, 4895, 748, -1777, 2595, -233, 1986, 2801, 6141, -1697, -6868, -5924, -342, -5528, 339, -245, -9117, -5798}
#define CONV3_BIAS_LSHIFT 11
#define CONV3_OUT_RSHIFT 15

#define CONV4_WT {-5893, 715, 4054, -8292, -4886, 3005, 646, 3302, 7293, 7538, 5278, 2977, -1353, 1035, 6080, 3541, -4824, 5236, 4222, -2191, -5793, 5468, 1652, -6377, -4247, -3113, -2023, -3137, -11726, 4255, -509, 7116, -9925, 3290, -835, -12609, -2655, -1930, -2458, 959, 8590, 4803, -681, -2595, 228, -12389, 1713, 5251, 409, 2146, -8354, 456, 4497, 2183, 2270, -4801, 1126, -885, -5425, -486, -12933, 7525, -6629, 4949, 1693, -63, -1837, 5549, -235, -4248, 2009, 4858, 9942, -7537, -7388, -8264, 2324, -6859, -5615, 7688, 3868, -7315, -8391, -1756, 6071, -11481, 1388, -6471, 4304, -1094, -9376, -3398, -4453, 1461, -6359, -3500, -112, 1146, 3500, 10153, 318, 8349, 3979, 2594, -2002, 138, 14928, 1858, 1792, 1373, 1714, 3495, 5035, 9265, 2069, -961, -4181, 5924, -3423, -6575, 3916, -11109, -2891, -822, 1444, -887, 4539, 8615, -4959, 1400, 9016, -6797, -1673, 4175, 3770, 401, 5718, 4757, 9674, 5676, 3694, -2194, 6108, -1292, -4286, 4315, -650, -1031, -7121, 7702, -2103, -3359, -5995, -11493, -6322, 66, -6267, 930, 476, 5328, -3435, 3649, 2810, -6669, 3413, 247, -1168, -623, 4492, 8370, 8071, 3861, 2514, -5088, 3497, 5584, -487, 5447, -5367, 4145, -1995, 807, -2062, -6761, -4758, -5344, -6963, -1623, -14018, 4676, 113, 486, 5148, 3679, -613, 10497, -2989, 7078, 1862, 3682, -2903, 5244, -630, 7215, 2777, 1059, 5620, 641, -4749, -219, 632, 2433, 984, 10757, -5149, -2614, 1352, -4874, -8361, -1764, -8983, 5917, 11125, 46, -5171, 161, 1367, 2561, -7796, 2920, -5036, -4155, 3242, 8220, -5580, -745, -1094, 2043, 5169, -1142, 5001, 2173, -11174, -4410, -9053, 2441, -573, -13639, -7403, -5462, -2287, 1687, -2742, -109, 6555, -176, 983, -1267, -2460, 7462, -1771, 2871, 2512, 174, 9024, 9321, -10238, 1100, 2217, -335, 5520, 459, -1137, 2343, -9848, 3045, 2782, 4607, -2119, -10537, 1799, -8310, -2297, -897, -3478, 6786, -80, -3852, -4310, 1941, -3065, 1097, -3615, -4127, -2367, -118, 886, -1298, -779, -1968, -1217, 107, 2527, -3375, -1290, 3220, -2933, -1771, -3970, 1658, -2872, -2095, -1431, -3230, -718, 1603, -3131, -3187, 1332, -2757, 2315, 1086, -3616, 448, 1643, -1681, -1301, -1540, -292, 1382, 254, 806, -2972, -1130, 1453, -292, -4818, -2874, 897, -2586, 345, 2345, -2899, -1392, -1416, -2423, -738, 322, 1597, 2673, 2692, -1277, -400, -1332, -2719, 1813, -1683, 374, -3505, -3984, 17, -163, -2951, -1397, -3815, -2551, -3134, -3410, -2015, 115, -559, -396, -3032, -2569, 79, -282, 1191, -2313, -1943, -756, 736, -161, -1264, -1360, 2777, -2125, -2532, 3242, -2996, 659, -946, -4739, 1464, 1770, -1401, -1220, -2999, -4178, -3332, -748, -1326, -1137, 2164, -1689, 1238, -4321, -3301, -2439, -2313, -137, -1382, 669, -1728, -2263, 728, -961, -1746, 1711, -1087, -1270, -2206, 801, -3887, -549, -1100, -2510, -469, -3316, 2250, 936, -1594, -3441, -2084, -354, -293, 1553, -2328, -647, -3211, -373, -1072, -60, 201, 2630, -1460, 450, -2010, -782, -1602, -2895, -983, -2793, -3205, -2483, -2406, -867, -2235, 1256, -1441, -1208, 992, 337, -2350, -1474, -750, -376, -3535, 460, 1775, 3249, 441, 2199, -221, -2033, 698, -2993, -2445, -1019, 184, -3257, -5139, -3950, 4385, -1948, -1605, 2217, -3902, -6173, 5577, 285, -5474, 4504, -1090, -6679, 4076, -1112, 3112, 3789, -367, -4430, -7314, -1087, -1099, -8512, -456, -1911, -2887, -704, -10471, 9000, -2440, 1277, 2443, -34, 3055, 2708, -2363, 2740, 550, 1444, -4146, -5632, 2937, -9556, 6211, -1744, 6486, -11711, -2555, -9359, 3436, 1069, 4573, 7316, 1940, -2049, 4672, -6169, 434, 544, 1813, 2705, -1146, 2003, -4175, -3706, -872, -4635, -2260, 4812, -1382, -313, -2005, 4276, -857, 8561, -4064, 552, 446, 357, -3186, 825, -1527, 819, -8965, -3722, -10900, -13460, -1128, -31, 2218, -1372, 925, -1561, -2400, 3971, -2342, -6315, 1296, 699, -1436, 8640, -5671, 1894, -4324, 1324, -6556, 2321, 5569, 3218, -1650, 361, -5238, -1647, 2059, 2466, -304, 43, -7425, 17140, 4799, 8889, 3650, 2073, 794, 5274, 4520, -4784, 4983, -4139, -2691, 4203, 9152, -883, 5058, -2466, -1795, 741, -1735, 9482, -3131, -872, 5010, -1826, 857, 5214, -665, -4147, 2424, 8355, -6509, 16104, 167, 4731, -8708, -2189, -4062, 3203, 1159, 1186, -2831, -10229, 3343, 341, 3589, -80, -8003, -7376, -2150, -3984, 4300, -5280, -7600, 1222, -4865, -1404, -2877, -7013, 971, -10520, -4596, -472, -3489, -5233, -7749, -6690, -7492, -1905, -899, -3762, -889, 10307, -845, 5731, -1870, -6138, -4395, 1115, 3808, 2482, 7173, 5237, -5992, 7411, -2114, -4630, -1077, 6841, 3379, 2922, -1282, -4103, -7070, 1144, -1065, -6372, -3243, -6000, -3829, -937, -1341, 1992, 689, 2324, -3500, -4529, 4256, -3400, -1768, -5134, -5795, 2975, -3830, 4449, -2976, 607, 4475, -3280, 5529, -3586, -3884, -16, 3650, -3338, 6710, 5619, 4610, 5126, 322, -9633, 548, -1036, -2719, 2118, -4453, -93, 5522, -1161, -3771, -4044, -5322, 4981, 595, 1043, -9416, -2415, -8940, 7720, -1874, -2484, -4472, 3668, -6081, -342, 3796, -4053, -7248, -9532, -5756, 5815, 1803, -2951, -5432, 2365, 2660, -325, 752, -9537, -3430, 4555, 4163, -4569, -7019, -4909, -2811, 3739, -3414, 2822, -11518, -4522, 4322, -3231, -2665, -3935, -8831, -3811, 7023, -1951, -3441, -2418, 3552, -4723, 4840, 5966, -2531, -2698, -822, 4910, 1547, -7780, -682, -1195, -3747, -6319, -2389, 2058, -2728, 2898, -5220, -1837, -13079, 3393, 290, 187, -422, -1828, -6168, -12126, -4108, -2650, -7861, -2481, -3496, -10331, -4861, 6480, -7681, -2525, 1387, 3286, 1258, -3485, -6908, -2695, 7357, 1683, -1518, 2969, -5235, 5423, -10125, 1447, -1574, -10011, 7534, -5393, 1637, -8833, -4902, -8870, 6077, 3483, -5223, -2241, 15, -17522, -4, 1430, 333, -2804, -4, 6277, 4279, -5664, 851, -1798, -2941, 2345, -3069, -3925, -4706, -1684, -2713, -3401, -2814, -638, -3325, -3987, -3597, -1812, -132, -3960, -525, 1015, -2263, -2631, -4134, 2307, -1248, 2274, 249, 2601, -2834, -2177, 344, -3040, -1473, -357, -1403, -193, -2680, -2999, -3650, 748, -873, -1351, 2849, -4270, -593, -4259, -4605, 599, -3394, -3617, 1540, 1358, -3309, -1691, -2807, 2005, 119, 2161, -3882, 1724, -208, -2741, 936, -2941, -3173, -502, -3964, -485, -2893, -1307, -4777, -4031, -3042, -398, 2408, -2839, -6520, -3254, -4060, -3741, -5128, -2623, -2433, 2216, 1547, -1772, 1253, -919, -2829, 1000, 1546, -2496, 401, -926, 2974, 3355, -3015, -2928, -7041, -1094, -4936, 7399, -1766, -352, 337, -6040, -3278, -1140, 5159, -1804, -3425, -94, -8278, -7382, -5002, 2492, -2430, -6182, -2330, -4438, 7247, 12357, -2746, -1099, -308, 6844, 3707, -1553, -1757, -524, -4617, -3799, -10305, 8726, -5657, 200, -10958, -6608, -939, -496, 3387, -4885, -5870, 325, -11014, -2524, -3434, -1020, 3745, -4770, -638, 1894, 3949, 12461, 1502, 578, -4223, 1585, 7859, -8413, 1400, 1863, -13911, -4868, -11694, -1194, -3839, 2818, -5621, -11815, -6049, 414, 3365, -2541, -4731, 380, -17933, -3004, -13653, -8714, -1369, -7792, -1910, -5532, 1185, 11683, -2072, 3219, -2573, 7303, 327, -4794, -7954, -730, -4208, -460, -17289, 1344, -2516, -303, -3498, -2463, 1447, -1089, 2241, -5687, -2665, -400, 1587, 2823, -4766, -1851, -378, -2632, -11006, 2223, -2039, -289, 4556, 2059, 3757, 3819, -3532, -1290, -8681, 2263, -2025, -2993, -7732, -5237, 76, -831, -3568, -3240, -3837, -3114, -629, -6207, -6522, -4422, -3596, -6039, 1991, -7280, -3433, -5372, 136, -6910, 3750, -9107, 986, 920, 757, 1512, -2031, -813, -2982, -1046, -6745, -3930, -10796, -6169, -1808, -3447, -5107, -4819, 2059, -3533, -1978, -2075, -2356, -4938, 3417, 2256, -4518, -279, -10221, -2613, -9021, -4395, 1924, -9928, 5018, -1361, 1022, -5550, -712, -5954, -7389, 3608, 5555, -5501, -12448, -8446, -8168, -7562, 4049, -1843, -3834, 544, 2166, -1310, -7390, -6400, 2126, 2704, -2606, 2806, -987, -8197, 4271, 7631, 55, -4537, 3899, 2068, 1916, 669, -2327, -5574, 2527, -7600, -3924, -4559, -7232, -6515, -251, -7815, -2332, -3708, -5968, 6937, 4035, -8122, -6792, -981, -4859, -2551, 3537, 1487, 5793, -6551, -8342, 16041, 1790, -137, 675, 1512, 2025, -47, -5256, -1525, 8576, -9387, 150, -5997, 3127, -3850, -4140, -13318, -4732, -2254, 5084, 4185, -1299, -9969, -9748, -5134, -7025, -4091, 4778, -2970, 5755, -4825, -3719, 14336, 3809, -2874, -6302, -4163, -4643, -5472, -8129, 1184, -6728, -2430, 6074, -5320, -2546, 3402, -1037, 810, 6923, 5758, -5205, 6737, -4664, -1072, -1476, 5025, 5804, -1091, -6306, -7687, -10136, -6515, 784, -8259, -1913, -3319, -1750, 2722, -7863, 7708, -3159, 2235, -818, 993, 6766, -3954, -4551, -5567, -4525, 2903, -3729, -1695, -5812, -6398, 3784, -3328, 587, -4811, -1619, -3806, -190, -4693, 2510, -829, 3323, 5345, 5410, -3133, 2121, -3097, -2549, -366, -2312, -3375, 8458, -4435, -7101, -2959, -2449, 5162, -1115, 17, -9837, -865, -3016, -887, 2775, 477, -4066, -1188, -3859, -5344, 2091, 6214, -7950, -6788, -5644, -339, 504, -336, -3365, -38, 3522, -2486, -1237, -3237, -728, 1041, 1097, 1782, -1477, -1893, 1401, -1082, 181, 864, 681, -2351, -3724, 2035, 33, -2640, -968, 220, -3587, -2025, -631, -4039, 2185, 70, -2847, 1179, -3658, -3038, 830, 1546, 1039, 1012, -511, -3412, 397, -1199, -4059, -519, 72, -236, 1618, -1444, -5156, -4197, -1165, -2157, -3769, 1427, -1945, -3872, -630, 1903, -3665, -456, -1635, 633, -2111, 2972, -3300, 1289, -1294, 1713, -2849, -966, -2411, 1689, -2347, 44, -490, 1083, -3783, -3610, 441, -1662, -2126, 13, -2771, 3131, -4058, -3043, -1866, -3799, -609, 2710, -1420, 2306, -2756, -2575, 1341, -22, 1135, 2635, -3499, -538, -3719, -2208, -1322, -52, -944, -1195, -1148, 1996, -4367, 687, -437, -1691, 2471, -1428, -3551, 1184, -3092, 953, 1487, 1561, -2456, -2614, 402, -2218, 412, -2218, -1261, -1123, -141, 1617, 258, 2577, -871, -1121, 151, -784, 1537, -1316, 39, 841, -2838, -1, -1316, 2279, -649, 2098, 1793, 1530, -2871, 554, 1309, -1659, -3509, 2924, -4131, 700, -2199, 2294, -352, 1222, -3540, -1695, 1399, -3771, -2811, 288, -1996, -2287, 865, 114, -2434, -3223, -1565, -1503, 1451, -1227, -2897, -1423, -1966, 2218, -239, -2464, -2601, -953, -4170, -1261, 1164, -149, -512, 3069, -87, 1593, 903, -1575, -3874, -841, -2268, 1620, 313, -2273, -939, 4623, 1564, 13, 4232, -4865, 1318, -166, -4245, -1130, -851, 561, 3611, -6889, 4573, -1881, -5545, -8228, -2190, 8389, 3056, 3256, -1207, 8449, -3956, 4779, -7976, 730, 11486, -7154, -2520, -590, 4111, 1339, -4338, 6346, -5719, 1088, -12816, -1967, -1516, -5456, 1977, -403, 740, -2082, 201, -1870, -208, -7454, -2008, -600, -2251, 4365, -1542, 5075, 5357, -385, -1635, 1339, 2992, -2052, 6500, -1654, -9163, 6861, -1955, 3734, 2112, 5146, 1476, 3847, -3559, 1667, 2365, -5432, 5715, -2851, -3085, 276, 427, 3755, -4176, 2552, -6073, 8442, 2547, 5524, -5427, 2196, 2863, 959, 4455, -1786, 799, -637, 2843, 739, -457, 4463, 7777, 513, 5025, 4646, 4955, 1077, 1432, -3755, 9534, -997, -9719, 5134, 5536, -1056, -5866, 10311, 3805, -8230, -1366, -440, -9793, -2196, -13565, 3279, 4702, 327, -1865, 1409, 3943, 4212, -1149, 2267, 63, -2130, 3587, 8086, 3529, -443, 3509, -6002, 3237, 965, -2800, 6674, -6392, -3178, -4831, -3175, -345, -10279, -9, -4972, -3062, -2624, -9590, 4236, 3330, 538, 69, 4365, 2311, 2858, 30, 1022, -6176, 6050, 6793, 5049, -5093, -4456, 3123, -9685, 4437, 5571, 1009, 5307, -10651, 2163, 5496, -2247, 2111, -8339, 3698, 712, -10509, -2619, -7018, 4694, 3247, -8547, -4863, -5140, 5041, 4044, -15347, 7259, -1388, 1397, -2758, -3945, -5040, -3040, -763, -779, -7139, -647, 2553, -2605, 2553, -5496, 1619, -5730, -4174, 11745, 1874, 5017, 7936, -129, 2157, 3710, 5103, -3265, 3063, 1040, -126, 4832, 3189, 362, 3062, 180, 2586, -4487, -25, 6904, 1093, -6991, -409, 1716, -5280, 4285, -126, 2375, 2941, -318, -2475, 18128, 5821, 8650, -727, -2196, -7323, 2820, -406, 287, 2136, 298, -973, -359, 5576, -4824, -5822, -10138, 3349, -6527, 6119, -2322, -4306, -3613, -5323, -2479, -4255, 865, -2359, -8371, -2192, -3312, -2854, 811, -4678, -5119, -9625, 693, -6430, -4974, -7929, 3863, -4405, 7159, -1579, 4800, -5913, 3107, -4153, 5318, 1213, -2876, -2153, -837, 4326, -281, -2235, 5971, -3205, 2925, -4798, -3040, -1429, -6319, 1065, -3606, 2010, 11506, -2061, -265, -2490, 8252, 5554, -4105, -882, 6044, -746, -394, -6056, -1753, -3085, 1974, -9679, -7434, -2805, -2645, -946, -550, -571, 5035, -7293, -2347, 1367, -492, 5169, 2946, 2703, -4148, 4258, 11750, 5032, -4207, 1390, 4797, 3093, -3743, 46, 3664, -8602, -1452, -6623, -8188, 3486, 1714, -2459, -6206, -1100, 1944, -2591, -1250, -3453, 6069, -4945, -4084, -5985, -2068, -1314, -1619, -2499, -4581, -5253, 6290, -2478, -4211, -389, 7355, -5782, -5381, 3916, -2060, -4748, -1155, -5588, -753, 7316, 6501, -294, -460, -3439, 2649, 4618, -3071, -1125, 2180, 1343, 1987, -5818, -2950, -7512, -2114, -7824, -4935, 9464, 441, 4437, -1122, -1153, 369, -937, -3502, -2971, 282, 1712, 1172, -5804, 2531, -3535, -1275, 4677, 5676, -1645, -3292, -262, -6825, -2341, 169, -1750, 1656, -2316, 1108, -1015, -975, 439, -6294, 429, -3077, -1509, 61, -5778, 5531, -1776, -2161, 3609, 2177, -2470, 1975, -5266, 1905, 4259, 3227, -11768, -3276, -2930, -8733, 6968, -2681, 4304, -4395, -15106, -8331, 137, 998, -208, 5639, 248, -7675, 6762, -1926, 1586, -2176, 1916, 2165, -2836, 160, -584, -165, -1859, -4117, -1720, -2087, -3438, -1289, -1974, -2096, 731, -4596, -3605, -1125, -4253, -236, -5055, 1583, -649, -3405, -1795, -735, -1495, 2757, 1338, -392, -697, 454, -4164, -3029, 672, -2635, -4141, 2168, -4100, -803, 1265, -4688, -3116, -525, 1458, -539, 368, 2147, -729, -992, -844, 742, -3766, -2483, 1164, 2152, -1721, 785, -338, -3381, -22, 681, 698, 1661, 503, 621, 1977, 1210, -4963, 2573, -2902, -2437, 1270, -868, -3204, 180, 654, 754, -663, 324, -1072, -695, -3669, -2551, -4171, 945, -3506, -868, -2519, -3089, -1922, 2879, -1896, 687, -1398, 2401, 826, -3942, 1306, -3222, 581, -1013, 1569, -1759, -132, 473, -2174, 278, -2048, 46, 3052, -614, -3153, -733, -176, -293, -2904, -1611, -1810, -363, -233, -2429, -2940, -1481, 1702, -917, 2046, -1985, 234, -3470, -2473, -878, -2248, -2419, 1086, 2657, 512, -1926, 876, -2504, -3001, -2270, -883, 1807, 1400, -785, 2251, -70, -2255, -2794, -4018, 934, -316, -2922, -3462, 1578, -2493, -3137, 11, -1499, -960, -2767, 2776, 1054, 1367, -2507, 1099, -2297, 1732, -85, -3810, -2122, -593, -4142, -118, 1635, -1562, -1543, -3011, -3996, -2909, -670, 562, 1597, -2396, 250, 891, -3305, -2493, 2687, -3385, -1336, -2658, -916, -236, -2154, -741, 1614, 5383, -4417, -3968, -1642, 529, 682, 2607, -2856, -5455, -2407, 10164, -2594, -2722, 1277, -920, 4849, 3405, -7354, 652, -3037, 3895, -6266, 8601, 7823, 1014, -1131, -1809, 5824, 6477, -3148, 1379, 3884, -3875, -3759, -5299, -862, 1769, 2744, -4006, -7396, -3140, 198, 616, -1191, -2814, 4358, -6136, -306, -3139, -7594, -1264, 68, 492, -3128, 81, 6553, -1593, 2145, -2842, 1767, 849, -1508, -2922, -297, -1526, 1841, -5813, 1845, 618, 5993, -10612, 1442, -7744, -4981, 3141, -740, 1314, 3093, -4105, -10685, -2520, -6770, 3449, 4123, 4482, -11008, 2670, 3870, 5516, 2603, 563, 5974, 5678, -8879, 5408, 2916, -5204, 3978, -2907, 5580, 1019, 2514, -1386, -4290, -10954, 5481, 78, -1104, -1617, -2856, 1672, -1503, -5477, -7007, -6977, 298, -6065, -4966, 3998, -3052, -4461, -681, -3825, 3901, 612, -12078, -7526, 855, 2575, 4495, -2187, 1238, -6453, -1637, 3741, 2841, -9232, 5183, 3707, -2066, 4227, -3887, 6717, 901, -4153, -10590, -1015, 2710, -1844, -6190, -294, -5859, -469, 1598, -5723, 6997, 275, -5014, 662, 664, 2818, -722, -4306, 2767, -2143, 3976, -11432, -3177, -9424, 1463, 5191, -2072, 200, -9502, -2024, -3458, 2855, -5071, 2131, -6338, -5560, -5089, 536, -3770, 5523, 1072, 4486, 2736, 2266, -11107, -15683, -374, -289, -11211, -15710, 4816, -2456, -1192, 355, 731, 13099, 857, 4455, -2749, 1049, -6185, 1805, -3678, -5290, -6356, -1058, 3817, -15604, 1997, 943, 4278, 8252, 2109, 5459, 8547, -2794, 2791, -11196, 3204, -2261, -4345, -4516, 5328, -9871, -1356, -7851, -8998, 6065, -2984, 4458, -5593, -7432, -4243, 556, -5498, -429, -8354, -2690, -1618, -9908, -5876, -2641, 4279, 6472, 1682, 2343, 6174, -1725, 4723, -14309, -790, -10452, -14321, -3169, 360, 1192, -3697, -6189, -7683, 6741, -717, -2768, 1148, -620, -3325, -2663, 524, -7248, 2455, -4630, -2198, -7836, -6637, -1161, -402, 3755, -2217, 3724, 4036, -3311, 4131, -8861, -7262, 2917, -6314, 6806, -10160, 4145, -5336, -6358, 1831, 6174, -5732, -8353, 5812, 3675, -5400, 45, 1547, -3803, 1651, -7662, 7269, 3163, -287, -10366, -9929, -3306, -3768, -6366, -9089, -5505, 3415, 1044, 3789, 1682, 3541, -4136, 2348, 3992, -2773, -4227, 3735, 3369, -2801, 897, 8096, 3078, -1542, -4550, -3640, 828, -1435, -386, 3353, 111, 5545, -3153, 2622, 4311, 2678, -1125, -1220, 5498, 2482, 2896, -4928, 2648, 8144, -585, 11649, 1664, 2711, -8468, 764, 5331, 1901, 8245, 1098, 4659, 4858, -4836, -1931, 2900, -613, 5141, 4856, -2380, 9347, 4126, 11006, 4059, -1324, -914, 4981, 11365, 3866, -10278, 65, 5164, -3181, -6984, 3435, -1883, 76, 313, 2499, 7940, 4851, 5629, 2907, 3902, 2728, 5799, 4111, 3710, -3289, -2273, 4424, -4500, 2592, -3346, 2941, -707, -2004, -10189, 2808, 3873, 4314, -5966, 6087, 3484, -4934, -6002, -1149, -1887, -922, -6545, 1337, 4008, -1036, 444, 4254, -329, -1051, 2253, -2726, 5883, 6811, -14540, 2654, -2996, -2391, -1537, 1457, 3936, 1363, -8520, 1586, 551, 5067, -4825, 3221, 3420, 2710, -6649, 1302, 3598, 2158, -9628, -2828, 8418, -1820, 5107, 8020, 2778, -7643, -9056, 2230, 9756, -715, -10225, 4064, -4136, 675, -1364, -2750, 6227, -453, -8210, -1069, -4361, 6756, -7756, 1317, -4185, 5671, -521, 196, -4899, -4909, -8510, -4884, 827, -3332, -3518, 8664, 1717, -1587, -3294, 555, -7340, -3184, -745, 2550, 6355, 10174, 3876, 10028, 3062, -503, -1030, 2942, 1969, -3599, -5025, -1, -3902, 3075, -6581, 1474, -2680, -2605, -9825, -5385, -567, -6410, 1080, 4305, -1927, 3332, -2414, 1728, -9024, -1475, 4372, 1279, 1323, 3503, -449, 12786, 7149, 864, 3384, 5255, 4711, -4713, -2846, 1736, -11683, 4972, 131, -1024, -961, -2559, -7586, -6491, -4736, -5219, -783, -3822, 531, 5586, -12765, -10221, -4843, -4312, 3425, -562, -2579, 318, 873, 10719, -4063, -2828, -4165, 3939, 3379, -4703, 320, -7193, 152, 320, -302, -4018, 396, 6420, -4410, 2895, -4294, -3733, 3027, -4174, 8478, 4059, -8062, -500, 6181, 2962, 2719, 2974, 4377, 11030, 5424, -1858, -5859, 1186, -9, 94, 5904, -2741, -1490, -259, -2628, 844, 3104, -3170, 2015, 1067, -3107, 4447, -11280, 1604, 2527, -1214, 7925, 4974, -1846, 3411, -3156, -6474, -2851, -801, -2183, -2835, 1593, 6539, -5320, 1153, -5232, -1975, 7315, -6773, -524, 161, -530, 1237, -1442, 4951, 2512, 4561, -6325, 5562, -7371, -9464, 7802, -1570, 10125, 5552, -4989, -1905, -2237, -10889, 1400, 7734, 3037, -3670, 183, 2847, -7720, -946, -3129, 327, 3260, 1380, 1416, 10544, -3304, 1837, -4458, 672, -5095, 7592, -2224, -1339, -2645, 1257, 8587, -2470, -484, 2176, 1127, 4665, 222, -4777, 2706, -645, -1588, -9900, 5001, 8392, -2195, -1149, -1936, 5529, 444, -4085, -251, -2049, -3789, -2453, -7076, -3956, 1796, 1066, -6143, -2342, -705, -3077, 3813, -3946, 2628, 2164, -2948, 2210, -4395, -5680, 2971, 1147, -8905, -10101, 3976, 766, 218, -3712, -264, 2702, -2727, 1404, -1071, 2380, -7075, 3697, -14395, 1296, 743, 5897, -682, 4837, -7257, -446, 7224, 410, 5575, 3015, -231, -2080, -2219, -910, -4038, 1305, -1015, -16655, 5225, 2456, 4299, -65, -735, 914, 4326, -991, -10471, 3006, 6767, -8817, 2798, -1614, -6409, -387, 8667, 7026, -5651, 188, 1660, 1963, 2222, -4151, 3568, -2275, -6216, -3745, 2228, -3150, 979, -2660, -6881, 1082, -4792, -809, -7266, 6926, -1712, -2081, 1327, 2494, 1106, -983, 3509, 2379, -2737, -988, -1455, -6102, -6111, -5649, 6006, 4918, -597, -3027, 1864, -11142, -838, -1757, 6631, -8626, -1060, 762, 4356, -4022, -6218, -3016, 2311, -3473, 2321, -3924, 6835, 4219, -2323, 3689, -3123, 1827, 4869, -651, -12824, -7941, -841, -3220, 5753, 3336, -2056, -8774, -4372, -11472, 6437, 4122, -4525, 1142, -3552, -4122, 7019, 2839, 2658, 3935, 6687, -7515, 759, 4234}
#define CONV4_BIAS {-1490, 2241, -5725, -3521, -681, 1386, -921, 1265, 103, -3976, -6064, -6191, 1450, 1694, -1877, -5068, -5, 768, 782, 4105, -2525, -2577, -4392, 241, -3973, -273, -3208, 728, 2982, 2094, -342, 1513}
#define CONV4_BIAS_LSHIFT 11
#define CONV4_OUT_RSHIFT 15

#define CONV5_WT {9477, 3291, 2344, -980, 3510, -903, -1854, 728, -536, 1199, -5139, -8115, -4125, -1547, 788, -317, -219, -2727, 2689, -2637, -1742, 2462, 601, -1595, 1527, -546, 3886, 2674, 1787, -5512, 2855, 3431, 4648, -278, 7129, 1470, 2858, -5250, 587, -9012, -3624, 2308, 484, -1949, -4911, -5975, -1808, -1908, 4909, 541, 3744, -4928, -7427, -1780, -604, -184, 1203, -6285, 3401, 3973, 1354, -4291, -2777, -1498, 6003, -2375, 2818, 417, -2095, -3991, 6478, -3220, -6646, -2284, -89, -2466, 1732, -5203, 4515, -1558, -1296, -3359, 7644, -3061, -6583, 2158, 306, -4157, 96, -8601, -7701, -7293, -1426, -546, -3403, 2118, 5547, 8434, 8547, -1984, 2089, 2930, -10076, 1480, 2762, 775, -1226, -933, -3232, -3019, -1560, 2447, -986, 7857, -9428, -1860, 1044, 4389, -1373, -2456, 2307, 908, 5315, 6527, -5135, 2064, 4318, -5868, 7609, 189, 201, 1965, 388, -5713, -3292, 3253, 2780, -650, -509, -163, -1620, 1906, 2078, -1889, -7211, 965, -8246, 662, -1302, -1883, -2503, 2136, 2132, -7210, -8609, -10450, -7176, 2443, -193, 1585, -1425, 7730, -5717, 1218, 762, 3409, 3026, 4182, 1160, 2049, -4783, -3604, -1786, -3740, -790, -3065, -3956, -1815, -4683, 1407, 2449, 705, 3142, 2253, -828, -1362, 6083, 2633, -5596, 1418, 5214, 943, 12970, 8566, 8260, -4010, 435, 5911, -148, 6225, 32, -2188, -3076, -1551, -11408, 536, -38, 1946, -1110, 8506, -911, 4562, 4739, -1801, 3138, 3892, -282, -776, 643, 3965, -3263, 1730, 6510, 2300, 3598, -2329, -4561, 1815, -2965, 3062, -1834, 6467, 3508, -1125, -5301, -710, -5659, 4416, -2349, 2052, -2244, -68, -51, 4254, 1019, 1695, 1712, -348, -1761, -9878, -8316, -5854, -3335, 3444, 2715, 2436, 7949, 2732, 388, -1002, -729, 1992, -5280, 710, -2699, 171, 1055, -912, -9782, -749, 904, -1569, -6457, 2629, -1009, -3541, -2598, -781, -2788, -2786, -5260, -3391, -6635, -1946, -6144, 2680, 1013, -111, -789, -477, -6916, 33, -1076, -1031, -12490, 288, 2993, -332, -4943, 1707, -1168, -2863, -1647, 1280, -9626, -6589, -10842, 5797, -6021, -1085, -30, 4320, -5956, -11544, -839, -1787, 421, 395, -1970, -160, 5384, -1663, 3242, 501, 418, 2169, -8240, -1970, -1350, -2865, 3279, -3286, -10312, -1179, 1414, 647, -894, 2930, -5312, 614, 592, 1029, -2434, 3060, 864, -5579, 8404, 1496, 3579, 2721, 4358, -6259, 8903, 1390, 508, 1947, -3294, -3494, 2370, 3429, -435, -684, -542, -5914, -4870, 3024, 4162, -1588, -7187, 259, 1703, 2355, 2051, -1894, -1347, 6386, -2925, -11347, -6326, -9073, 4493, 4421, 147, 4023, -11645, -4838, 5899, -666, -1831, -4312, -208, -9388, 7260, -1061, 11591, -213, -2023, -7052, -1056, -2479, 3235, 5940, 2418, 3037, 3822, 795, 1237, 8491, 631, 1132, 6259, 2740, 10995, 3778, 6008, -17868, -7370, -6512, 6563, -916, -1204, -4528, 2002, -2692, 4229, 389, 9675, -6305, 2135, -3318, 1626, -876, 2530, -673, 364, 5919, -1186, -2951, -250, 4260, 5280, -7359, -1947, 2789, 4071, 1977, 3745, -11246, -17740, -3762, 962, -2810, -2076, -4777, 4090, 387, 3618, -3889, 8, 937, -1659, -3480, 459, 610, -749, 1654, 4180, 3565, -1861, -3344, 2572, 4734, -1841, -6756, 3733, 3063, 3624, 3803, 3646, -9148, 3391, -3570, -796, -3499, 10, -3022, -6961, -212, 2244, -77, -5662, 5820, -6655, -2242, -157, -1564, -5292, 343, -10608, 599, -4134, -2473, 1864, 754, -2725, -930, -5943, -3547, -2308, 1445, -2322, -4358, 5035, 2150, 1282, 2583, -1067, -2995, -7583, -220, 1963, -5789, 2461, -710, -10899, 76, 1293, 1762, -998, -1390, -6451, 2728, 237, 949, 990, 1589, 2104, 94, -1140, 916, 125, 1833, 3135, -1841, 15034, 5504, 5229, 1501, -2297, 2945, -8110, 7175, 828, 2407, -1889, 3760, -12427, 7229, 3677, -943, -1848, 5560, -2267, 5441, 6297, -817, 2209, 3022, 3222, -1225, -6892, -6898, -613, 728, 2933, 7541, 6467, -1341, 5365, 881, -1413, -7134, -8101, -1390, -1413, 2116, -8963, 8906, 3538, -2262, 2077, -384, -7938, 1777, -7290, -4899, -4996, 690, -3313, 377, -2667, 8646, -4068, -5439, 112, -5208, 1363, 2064, 1171, -7850, -8329, -1192, 2403, -2667, -908, 652, -1544, 1692, -7868, -1145, 3650, -3056, -1879, -584, 630, -3952, -1349, -4721, -6527, 2165, 3259, 16, 1171, 2311, -6754, -5186, 940, -2787, -1005, 1969, 4400, 3996, 4199, -1385, 434, -366, -5219, -6571, -6219, 137, -9291, -3718, -309, -8000, -924, -2412, -2010, 3388, -3389, -7521, -4090, -2905, -1528, -6236, -11867, -2024, 5337, 7369, -2941, -3297, -639, -3045, -3026, 3092, 3210, 2000, -2220, 2843, 6068, 284, -1318, 4227, 10183, -10449, -1024, -609, 259, 1133, 6379, 3005, 7376, 7388, 4727, -2863, 598, 3891, 2157, -520, 5540, 8556, 3189, 1506, 5272, -4105, 4555, 767, 3153, 1346, -2102, -4063, 8149, -558, -3402, 1378, 1797, -11805, 4654, 57, 841, 3206, -1658, 3506, 5958, 2972, 3031, 84, -792, -535, 958, -6862, -5913, -531, 824, 3872, 617, -2286, 1259, -6037, -6831, 2463, -2381, -3917, -326, -920, -8001, 3754, -6392, -11447, 943, -1392, -3769, 3173, -6091, -5628, 591, -2388, -4024, 3520, 371, -3434, -9152, -17864, -2464, -4947, -2092, 2478, -3641, 2489, -12763, 12, 7202, -222, -2030, -2395, 340, 420, -576, -3725, -8879, -1381, -6031, -4245, 16, 13, 13, -1116, -6888, -2625, -4681, 2796, -2861, -1501, -218, -12372, 2410, 2415, -6986, 3248, -1863, -1387, -14745, -1032, 5777, -1481, -818, 494, 5465, 1179, 4007, 3513, -7684, 6814, 9253, -2887, 724, 2697, 4367, 4845, 4021, -4803, 159, -1304, -1485, -519, 4521, -7966, 3866, 2081, -1426, 4805, 664, -2485, -10956, -2222, 5661, -2659, -88, -2220, 8399, 4053, 1185, -3542, -3473, -4483, 14942, -1379, -1078, 669, 4123, 2959, 7461, -1758, 2594, -1450, 508, 93, 2550, -13724, -1408, -3465, -2903, 7573, 1825, -5240, -7534, -6052, -3345, -908, 3588, -2247, 11247, 6898, 6170, -3624, 4431, -187, 16032, 2021, -2858, -1870, 8166, -5558, 12246, 4911, -7105, 1340, -1266, -2796, 842, 2868, 1636, -9227, 11254, 2701, -11055, 2353, -5370, 1702, -4699, -2368, -2581, -9045, -2882, -10462, -5642, -2308, -6401, -2067, 1898, -18426, -8, -190, -3170, 1022, -6198, -6636, -4764, 1871, 3264, -7043, -11485, 4141, 1344, 5595, -3442, 4977, -6810, -12412, 1948, 6697, 1056, 3063, 2927, -3392, -1818, -7103, -2845, -257, -7545, 47, 2996, -3393, -2018, -1757, -5627, 3404, 2074, -5685, -1576, -2107, 96, -1496, -2259, -728, -306, 4521, -3874, 4914, 2052, -5643, 10534, -3270, -883, -406, -245, -301, -2735, -4137, -7333, -124, -7069, -2159, 10360, -1790, -3164, 1841, -5991, -1619, 3045, -355, -2585, -1109, 4175, -5572, -2812, -767, -5718, -5713, -2719, -1079, -5851, -2735, 861, 1796, -6908, -2201, 3172, -417, -2586, -3707, -5397, 1458, -732, -2282, 9167, 797, -3510, 1462, -2585, -4327, 5531, -141, -1772, 1925, 771, -120, -3380, -538, 3318, 957, 2842, -1736, -1979, -2361, 12332, 1547, -248, 2547, 2291, -1900, -851, 1361, 780, -2372, 3923, -3932, 5910, 3770, 4162, -1240, 5087, 2835, 10762, 6274, 1859, 2908, -1785, 6354, 6693, 5654, 1168, 2451, 7837, -2212, 5035, 3481, -4109, -4180, -4839, -3211, -2459, -3433, -17906, 3674, 6516, -2893, 2697, -1805, -2932, -4342, -1092, 126, -2641, -4342, -15349, -3314, 937, 1463, 1810, -340, -90, -4068, -13601, -7560, -1934, 1732, -3256, 2383, -1473, 2229, 3962, 2243, 591, 1856, -11038, 5877, 2637, -831, 5135, -2446, 9897, 5369, 1569, -594, 1014, 8522, -5836, -635, 46, -1537, 717, 3011, 2986, 1540, -563, 5528, 455, 1355, -423, -358, 1560, 533, 4926, -150, -2215, 783, -9425, 1338, 7175, -1514, 9172, -5093, 6150, 3821, -694, 3264, -7274, 2720, -5098, 2405, -1677, 2020, -719, 3619, 2515, -1650, -10503, -5086, 614, 3097, 1418, -5491, 419, 3771, -663, 980, -2548, 2212, -3688, -6002, 3522, 2260, -3975, 6979, 1040, -7546, -2621, -1677, -7374, 47, -3805, 1786, 2422, 1418, -1647, 5087, 3842, 11360, 6852, 10570, 1669, -10924, 3969, -9893, 3233, 933, 3765, -1291, 1745, -2012, -10882, -5775, 1790, 769, -7754, 4431, -3436, -223, 288, -1563, -2977, 541, -5494, -1690, -5031, 1871, -3030, -959, -3104, 5168, -2303, 5417, -1838, -5729, -53, -3420, 4610, -7505, 3411, 177, 2027, -7784, -878, -2342, -4844, 2114, -9573, -3739, -2624, -6872, 3709, 427, -7211, -4099, -7052, -4885, -12692, -2807, -1222, -6276, -6400, -2258, -11679, -5571, -5952, -5254, -13573, 4145, -1993, 1762, 1293, -2207, -295, 3004, -12431, -1875, 3019, 392, -657, 2236, -7025, 2670, -2, -455, -2901, -878, -12435, -2734, 3933, 2602, -3374, -2658, 4971, 6193, -4158, -3096, 1652, -5918, 1841, -161, -3469, -1908, -4498, -281, 1713, 3719, -8846, 333, -2641, -103, 1434, 988, -6940, 5409, -1734, -560, 573, -6059, -10161, 1865, 3454, 2486, -1980, 2772, 2368, 1968, -7774, -8500, 906, -6833, -1589, 6564, -1760, 7447, 2292, 1917, -2908, 7217, 620, 3661, -2270, -2717, -322, 1242, 7130, 4724, -1758, 2033, -1190, 1127, -34, 2097, 1556, -1163, -290, 159, 2362, 1288, -5080, 5175, 1309, -2443, -1225, 2523, -9378, 3141, -971, 2556, 3000, -1473, 5181, -13946, 941, -920, 3092, 5230, 3040, -14276, 966, -3321, -3208, -112, 2311, 4382, -270, -1255, 670, 1622, -2843, 6913, 3559, 5191, 10474, -5667, 508, -12047, 4256, 4255, 2692, -2150, 293, -5855, -4846, -8810, -4233, 662, -5009, 865, 1105, -5066, -3407, -2963, -3851, 3835, -6996, -1971, -1144, -2283, -2789, -4295, -4929, 4810, 3253, -101, 5094, -4117, -2070, -11683, 4100, -8506, -5741, 1968, -2575, -7024, -564, -3123, -4794, 3827, -10099, -2940, -4699, -6545, -2671, 987, -5093, -7990, -7146, -2664, -11503, 2789, 3609, 328, -8312, 2357, -9218, -10756, 5546, -6903, -7276, -2325, -381, 2025, -214, 1027, -3065, 2122, -234, 3895, 3648, 785, 1442, 2178, -1393, 1711, -839, -403, 640, -972, -1719, 5954, 1878, -3008, 2914, 8807, 2856, -876, -5295, 3187, 3707, 3827, 3993, -399, -2069, 2361, -4078, 923, 994, 1429, -4295, -1389, 1017, 2370, 2814, -3924, -851, -1572, 1571, 1556, -915, -3475, -449, 7952, 2782, -179, 1411, 1642, -222, -2901, 2957, -3898, 5092, -145, 3387, -1282, 1863, -3480, 1219, 604, -3037, -2223, 3513, 3388, 5252, -2856, 11500, -1566, 5479, 1490, 2082, 2823, 4834, 1907, 4628, 7288, 4052, 891, -20, 8178, 1464, -1306, 3995, 378, 12561, 4077, -2147, -1158, -4357, -3041, 4005, -953, 1618, 4627, -5662, 675, 2434, 197, 598, -199, -996, 3699, 1658, 1041, 113, 2853, -10806, -1649, 4122, -629, -2373, 928, 6139, -455, -4627, -2149, -2500, 2292, 1163, 959, 334, -1151, 4921, -994, -2795, 4223, 488, 2904, 4677, 1314, -405, -3592, 6273, -466, -1419, -55, 3176, 995, -2270, 92, 2627, -1476, -1987, 842, 1097, -40, -2035, -6566, -4568, 2276, 4634, -5468, 374, 2898, 3423, 675, 1089, 2820, 180, 1872, 2221, 2217, 2741, -5963, 11528, 2070, -2829, 3532, -414, 3376, -6770, -2347, 5405, -1973, -2853, -1039, 6328, -831, -3021, -6394, -2897, 586, 633, 2468, -2483, -13984, -12265, -1840, -2042, -6802, -934, -4647, -17690, -469, -6933, 4912, 679, -4653, 427, -1448, -8586, -11937, -3414, -6609, -13693, -2302, -1961, -7669, -9445, -1450, -13175, -8696, -10835, -6554, -12142, 622, -5852, -965, -3820, -1547, 2420, 2525, -247, -1178, 1003, -2179, 2163, 1601, 3424, -1928, -2131, 350, 3841, -2340, 1799, 1357, 1182, 1662, -2526, 1630, -954, 98, 8350, 1274, -1838, -4953, -3010, -1818, -433, 4784, 2026, -929, 725, 6617, 1433, -1670, 3481, 481, 5972, -4328, 3388, 2125, -628, -1063, 1974, 3609, 5051, 3798, 2057, 3533, 976, 2383, 6461, 4843, 6659, 6221, 3822, -4353, 282, -1301, -40, 375, 2255, 2549, 2574, 9881, -11370, 2362, 2735, 1634, 2117, 3106, 6715, 8848, 1201, 757, -1439, -2137, -6154, 5843, 7187, 645, -3496, 6817, 4485, 6594, -12555, -4529, -3497, -2096, 3905, 4589, -5101, -5449, -1432, 397, -310, 3140, -14041, 4398, 2712, -3580, 5194, 857, -1064, -514, -2962, 3283, 1090, -4162, -12829, -1365, 1782, -2580, -335, 3079, 1411, 1903, -8929, -9656, -3026, -2294, 1820, 3334, -7077, -1351, 11, -1847, 8, 2120, -9436, -45, 5055, -545, 2775, -3080, 1856, -233, -3150, 2315, 220, -4681, -13655, 2439, -387, -730, 2827, 4286, 4564, 883, -13374, -4731, -3110, 2041, -977, -951, 1582, -8122, -10066, 2181, 1360, -4734, -3959, -7848, -9920, 1538, -9702, 3017, -982, -13527, 1827, -978, -11262, -14643, -3657, -4994, -9480, -194, 926, -2586, -10749, 8168, -7912, 2006, -4397, -15901, -7697, -7452, 2077, -6233, -6383, 738, 824, 724, -70, -2779, 2774, -1649, 3424, -2070, -374, 1788, 3112, -3081, 1368, 1508, -3583, -684, 958, -2783, 3056, 3035, 652, 1742, 5633, -4812, 675, -11113, -4005, -2411, -1765, -10990, -2081, -676, 1265, 929, 4621, -9959, 955, 46, 10671, 428, 1811, -4946, -1095, -1399, 4601, -3797, 3567, 5328, -161, -2641, 1916, 5716, -1909, 1483, 3317, -1671, 2816, -3246, -4168, -6926, 6382, 3370, 4750, 3789, 2506, -5348, -3513, -3631, -2896, -1156, -12474, 6158, -3698, 143, -658, 762, -7228, 4589, -1426, -6601, -4400, 1065, -3426, -837, -3349, 4344, -3424, 1738, -3898, -5563, 3341, 585, 5867, -4421, 1857, 1762, 1145, -1937, 716, -2382, -145, 4296, -3688, 4080, -5275, 409, -1401, -997, -3520, 3300, -3692, -3978, 1277, -1181, 2972, 3393, 3576, 5775, -2326, -1202, -3193, -5594, 154, 4477, -1196, 1499, 2051, -2686, -1169, -5064, 1477, 979, -1794, -1182, -8604, 6850, -768, -5328, 2788, -632, -4718, 1544, -1817, -7511, -5401, 367, -2091, -3924, -4638, 1524, -2080, -1015, -7154, -2380, -1414, -5, 10267, 8470, 9040, -2572, -3538, 1158, -2745, 441, 140, 2368, -2873, 5992, -7278, 3531, -3226, 1965, 1690, 7560, -2212, 1194, 7123, -1201, -3577, 1589, 1329, 6139, 5274, 7983, -2679, 1260, 5615, 2626, 13773, 4553, 3882, 2811, 1563, 383, 156, 5071, 830, -1528, -7206, 1532, -7064, 364, -1156, 3461, 2660, 6036, -1586, -2424, -1253, 250, 2007, -725, 3701, -4880, 2828, 2439, 2098, 4020, 1944, 2296, 7944, 1150, -730, -414, 2121, -2061, 3976, -2154, 406, 925, -11692, -1048, -12487, 550, -3655, 2868, -89, -883, 1846, -2143, -1674, -1890, 1008, -5409, -2211, -11220, -5444, -5653, 982, 4484, -2761, 502, 1581, -530, 1607, -2106, 1216, 2737, -3896, -4522, 3075, -1908, 11, 5560, 5548, -3778, -886, -2652, -1906, 5667, -3503, 6497, 3390, 1811, 1711, 3659, -81, 12278, -3069, 9995, 2167, -646, 5181, -6365, 2258, -8378, -5146, -2255, -446, -875, -5930, -310, 4958, 1332, 3841, 586, 289, -4151, -2605, 2755, -4719, 78, -2872, 3590, 576, -2218, -2225, 4760, 851, 2, -6538, -1390, 2210, -4670, -3602, -5363, -4965, -3573, -8140, -3254, 3558, -74, -8582, 2477, 3517, -2078, 5912, -4254, -3882, -2271, 2251, 3418, -2124, -1090, -9580, 3944, -1329, -870, 2197, 3847, -768, -5687, -10149, -2331, 2753, 1468, -1260, -5965, -2749, 684, -18348, -3296, 3348, -1607, 4960, 4994, 1424, -2781, -4403, -10680, -1420, 4204, -2228, 3179, -318, -5558, 3802, -5325, -5431, 509, -1637, -5031, -549, -13289, 3711, 3736, -10157, 6120, -5064, 4293, -2252, -5054, -7958, -594, -2594, 4811, 12640, 5407, 5070, 1058, 4985, -518, 11330, 5706, -43, -2127, 1936, -3651, 12510, 973, 2308, 2141, 650, 1994, 1056, -4307, 3337, 1860, -1018, 3776, -5020, 2144, -4221, -4408, -13796, -1601, -2568, -2404, 11703, 2930, -1505, -2337, -1554, -11290, 13218, -3048, 391, -2859, -1387, -564, 13468, -1222, -1775, -1930, 342, -338, -1346, -11365, 1237, -5006, -3860, 5707, -6219, -4932, -9502, 5038, 5133, 1600, -892, 1075, 4786, -2830, 4147, 2315, -8522, 4346, -1412, -7665, 1997, -994, 2645, 2260, 4765, -4645, -460, 727, -730, -1792, -2255, -5877, 6201, 2766, -3168, 225, 1035, -10267, -10244, 5405, 5578, -1257, 1725, 85, -3094, -6266, -3177, -2412, -4787, 4695, -19332, -7962, 1145, 803, 1047, 4527, -2850, -5951, 1182, 2308, 2091, 409, 1329, 5229, 5594, 8107, 1238, 4326, 988, -16312, -3231, 250, 6050, 415, 1551, -223, 2331, -2342, 124, -1922, -4639, 10912, 1416, -2471, 1690, 2893, 6332, 7220, 1063, -3342, 2944, 2774, 3242, 9, 4290, 5280, -390, 4855, 2372, -82, 5303, -9566, -2766, -4729, 3623, 748, 1313, -6256, 8050, 999, -2384, 3321, -11149, -1173, 3128, -4615, -2723, 505, -651, -4555, 4377, -7681, -7545, -2734, 160, -4350, -1603, -6399, -3, -2172, -5624, 836, -5920, 181, -6028, 3068, 5984, -2790, 25, -814, 3841, -2453, -2935, 1080, -3214, 46, 7108, -6134, -494, 948, 1387, 3392, 2943, -4320, -759, -965, 2856, -1325, 1379, 1042, 3433, -274, 4979, -773, -3337, -3935, 3940, 4142, 8392, 1642, -1993, -1107, 8184, -1659, 2903, 2955, 2148, -754, 8046, -224, -1524, 1324, 6524, 6042, 6516, 1440, 6166, -1271, -2428, 6391, 2860, 1191, 4519, -5, 6701, 1567, 8144, -141, -2942, -3326, -3480, -2168, 388, 5147, -2302, 7993, 8812, -1932, 1047, 1442, 12691, 9233, -1251, 1620, 7, -935, -427, 4792, 2552, -1920, -2473, 4765, 5343, 3386, -5666, -4297, 1411, 5069, 4050, 5495, -4442, 3614, 5205, 281, -3522, -1818, -1944, -1137, 5533, -267, 8685, -2642, 5024, -2732, 1772, -1315, 5224, 2655, 1331, 439, 776, 2942, -747, 4951, 330, 4444, -58, 879, 1276, 1157, 3416, -2224, -682, -3021, 2790, 2351, -1825, -2555, 895, -786, 2420, 799, 1907, -1837, 6284, 1115, -1228, -1844, 1457, 3087, -1205, 3923, -1971, 681, -1600, 3690, -3881, -69, -6547, -1087, -1668, 1879, -678, -2127, 851, -2690, -1655, -546, 943, -4971, -823, -3967, -4994, -1160, -11808, -5288, 1256, -1517, 2830, 442, -3592, -2023, 1661, -7230, -6565, 3732, -2837, -4465, 2813, -4988, -6751, -4246, -5543, -3691, -8830, 4861, -1096, 5772, 4314, 560, 1230, 3005, -3043, -515, -721, -2069, -2648, 331, 10425, 5014, -4097, 1918, 6112, 1914, -4633, 1999, 3340, -1556, 1442, -122, 6929, 2386, 6101, 3352, 4210, -321, 41, 3892, 9686, 5626, 10907, -174, 117, 7755, 4687, 997, -1285, -4017, 3298, -543, 11111, 2915, -355, 783, 2130, 9801, 9840, 420, 5498, 1259, 1823, 4401, 10547, 8946, 5037, 4146, 10401, -2687, 4874, 2770, 15734, 566, 6611, 754, -2684, -1883, -3952, 3811, 6732, 2869, 4671, -9462, 530, 1231, -1321, -729, -2993, 6174, -3867, 5249, 3013, -377, 360, 5102, 1091, -5294, -384, 1050, -1929, 3992, 3631, 1878, -4686, -4361, -3907, 3274, -2328, -7360, 551, -177, 2077, -58, -106, -6977, -4553, -1669, 1761, 3352, -4726, -5030, -170, -1417, -2750, 981, 1296, 1914, -2980, -6233, -7445, 371, 1270, -636, 3808, -1529, 5325, 1268, 713, -1257, -402, -279, -2318, -3819, 329, 1888, 815, -4830, -9200, -4469, -4060, -724, -3602, 3188, 762, -2843, -3025, -512, 2650, 772, -3332, -10444, -3508, 2320, -3440, -68, -1861, -4886, -1585, -4357, -360, -1554, -2410, 1469, -106, 6369, 1831, -1203, -4478, -4145, -755, 8260, 483, -1254, 3673, -4993, -1120, -2682, 1189, 3046, -3236, -12, 6985, -3204, -253, -8289, -3629, 2518, -2640, 4248, -3586, 3246, 3249, -1192, 104, 8309, -742, 3806, -323, -359, 1127, 955, 703, 5237, -3410, 2922, 539, -424, 3932, 469, 3009, 2583, -2997, 847, 3672, 334, 304, -3267, 1034, 958, 3096, 1516, -992, -4049, -2457, -3154, 1724, 6137, 3147, 4944, -2955, -2519, -86, 4293, 10857, 8254, -504, 1376, 2312, -4438, 1392, -3860, 2524, 555, -1863, 1663, 4645, 4771, -6038, -8882, -2080, -1243, -4550, 4537, -2583, 1292, -2274, 952, 1325, 1572, -10031, 51, 4597, 3336, 4663, 3805, -12136, 2892, -1064, 2483, -2452, -2219, -15090, 3851, 5511, 1845, -1690, 716, 5858, 3347, -7547, -2787, 1470, 19, 1054, 464, -10996, -3495, -3866, 2531, -3538, 3672, -14550, 2295, 3003, 1035, 4008, 2624, -3322, 1178, 2089, -1735, -1943, -8915, -16323, 1084, 1845, 2591, -3396, 5214, 5529, 3450, -11861, -6823, -930, -3513, 707, 917, -4644, -5122, 7, 403, -3005, 4895, -9596, -1097, -776, 526, 3098, 2105, -6935, 1555, 2532, -2902, -3570, -7301, -16022, 2991, -2428, -2134, 3065, 467, 1124, 6970, -9100, -6890, -166, -2605, 2116, -3347, -2896, -1220, -513, -3134, 1929, -4275, 1764, -6692, -4655, 1969, 595, 3558, -3103, -2883, 2367, 3226, -388, 1574, 3045, 2484, -3338, 490, 1295, -1972, 1936, -2695, 2024, 2585, -575, 1499, 2073, -4455, -2499, 40, 1206, -2825, 662, 154, -2660, -2623, -3836, -1137, 908, 2363, -1020, -816, -2362, 2511, 658, -392, 343, -1080, -4280, -2793, -1056, -1488, -3967, -4294, 273, 501, 1750, 1813, -456, -3648, -1001, -5780, -2664, 1934, 850, -3868, 4390, -1436, -5725, -2065, 2260, -4284, 2135, -3387, 3133, 2738, 828, -3082, -2308, -1517, -6258, 841, -1515, 1823, -2438, -1408, 4366, -1743, 3822, -2656, -2704, -4045}
#define CONV5_BIAS {-5506, -995, -3639, 210, 235, -4258, 633, -1155, 3179, 984, 395, -494, 1534, -5963, -1472, 58, -5764, 1801, -480, -1050, 849, -2041, 1660, -611, -1366, 788, -2257, -865, -1464, 473, -5585, -3463}
#define CONV5_BIAS_LSHIFT 11
#define CONV5_OUT_RSHIFT 16

#define CONV6_WT {4135, -3942, -8590, -4460, -5411, -497, -2567, -1775, 1747, -483, 4421, -8333, 3548, -3083, 5395, -7977, -2533, 6276, -3504, -881, -2406, -6235, -1093, 6198, -7373, 2219, -6968, -824, -49, -3189, -940, -1976, -1824, -5651, -4778, 2715, -12260, 9563, 113, 1228, 3841, -7474, 2071, -2403, -5067, 6946, -357, -2498, 2313, 2573, -2550, -2662, 6031, -5749, -4288, 7, -7880, 562, -9144, 4386, -5172, 7293, -1739, -1544, -1753, -3698, 2382, -5075, -2711, -1832, -2246, 451, 578, -5573, -20, 5958, -701, 7564, 546, 3156, 2050, -1206, 2621, -3498, -306, -2343, -9772, 575, -4462, -1760, 1517, 2961, -4338, 9124, 7643, 1964, 149, 5272, 7883, -1541, -5608, 2131, 4169, -3559, -2553, -13420, 3976, -2330, -994, 5674, 296, 2544, -604, -9135, 1619, -3341, 5840, 2593, -196, -7921, -5240, -4453, -1053, -430, 5290, -537, -2108, 4936, 1101, -2948, -432, 3214, -7653, 3167, 438, -13523, -8052, 1546, 1473, -904, 283, -726, -8489, -139, 3405, 1435, -4556, -1165, -3365, 3042, -3436, -13543, -3258, 2185, 137, -996, -6807, -1303, -5637, -3220, -1515, 8019, 2758, -6430, -1061, 829, 8425, -4102, -7873, -2464, 1207, -3661, 2205, 2489, -1863, -3081, 2383, 935, -3125, -3969, 766, 448, 1675, -15322, -4017, 2261, -610, 2926, -3373, 12, -4012, -428, 1512, -6264, -7422, -2589, 2693, -2153, 7932, -3621, -3571, -5593, 768, -659, 3334, 6325, 6195, 3079, 4620, -3921, 7414, 4320, 191, -6044, 3272, 5272, -2070, -1798, 6464, -4493, -8603, -3029, 6663, -274, 1688, -6873, -5493, -3774, -644, 188, 3039, -3123, -1753, -4796, 2074, -1278, 232, 3083, 7486, 4917, -987, -2560, 4215, 2190, -3801, -4875, 4649, -95, 2520, -968, 5242, -1242, -5362, -5046, 8197, 1735, -1719, -4683, -7962, -3170, -271, -2796, 2917, -683, -3388, -4555, 1143, 312, 3561, 5390, 2547, -1048, -2237, -894, 5442, 6308, -3077, -6764, 5543, -4560, -1833, 3936, 5352, -4072, -5737, -3255, 5722, 1859, -1731, 397, 3561, -581, -5663, -4358, 2648, 368, -14441, 7004, 6132, -2367, -571, 5940, -6548, 3584, 1465, -4781, 7043, -7594, -5827, 927, -2058, 829, 22, 1463, 9723, 6070, 2553, 3879, 3441, -4080, -4997, -4937, -4181, 3401, -5516, -3620, -5657, 4772, -1288, 4589, -879, 2678, -7330, 2364, -9136, 2458, -490, -5076, 2871, -6057, -1918, 635, -5016, 2579, 767, 281, 1978, 4518, -9987, 4066, -353, -1194, -2995, -593, 1657, -4585, -8249, -243, 77, -6317, -5012, 697, 3644, 324, -11376, -1403, -4889, -1954, 2497, 1564, 3543, -7217, -2258, -2391, 1464, -1024, 38, -1009, 325, 2073, 1042, 464, 339, -2152, 1714, -1805, -3810, -1613, 4354, -5046, 1343, 4345, -4025, 758, -7787, -2041, 3654, 4215, 5740, -594, -3196, 1263, 366, 8486, -382, 638, 1016, -4716, -6840, -13357, -1021, -11800, -1147, -8766, 1356, 18, -4169, 1137, -4249, -1064, -911, -343, 3274, 1772, -3537, -5741, 1034, 4063, 950, -1406, 5039, 2434, 454, 5208, -3953, 3640, -5125, -4682, 3170, -1844, -2803, 1482, -3036, 831, -2787, -6088, 1009, 2523, 377, -1712, -3031, -2667, -3475, 6486, -971, 308, -7583, 8152, 4476, 5182, 1729, -1392, 4097, 230, -1334, 7197, 27, 9654, -4403, -4983, 2140, -2585, -1508, 4824, 6198, 4333, -2929, -4168, -335, 534, 429, 5072, 6040, -4188, -1339, -7234, 1503, 5505, -6293, -5644, -2245, -6294, 5393, 623, -1491, -873, -1582, -229, 46, -4432, -3230, 8526, 5322, 743, -6453, -10986, -2700, -3856, 3419, -911, -1979, 2048, -7709, -3359, -222, 3024, -6737, 3870, -1274, -1102, -1958, -2286, 5079, 1139, -3291, 237, -6541, 2927, 9, -2816, -1555, -3962, -17, 2849, -1478, -925, 948, 6618, 3498, 327, 1948, -1516, -619, -2271, -5018, -2783, -1653, 5144, -5450, 4597, 6399, -3774, -486, -8322, 647, -2926, -7660, -1206, -14814, -1418, 20, -2274, -4277, -9831, 1581, 709, -6437, -7291, -9272, 2550, 2020, 6092, -4422, 656, 619, -6570, -267, -1313, -3818, 15, -2390, -927, -1605, 587, -4134, -3851, -4954, 278, 1957, -70, 1887, -1294, -3465, 418, -1121, 3379, -3302, -1308, -2813, 2099, -2300, 72, -1885, -1739, -4958, 1815, -121, 2358, -3567, -3845, -3168, -275, -2039, -3744, -3240, 2178, 2300, -585, -69, -2898, -1658, -2272, -1351, -3775, -28, 1286, 837, 1993, 1535, -2058, -1236, -3128, 1169, -633, -1416, 304, 2259, -1445, -2819, 3066, -2639, -4112, -1509, -3562, 708, -1220, -3537, 2620, 828, 1380, -3949, 1534, -3238, -191, 2735, -3058, -304, 2327, 483, -242, -2047, 1613, 2067, -1048, -1099, 147, -2508, 1306, -3246, -1168, -4265, -745, -2005, -1653, 4591, -6816, 4133, -8559, 5104, 9479, -5933, 2236, -4624, -3189, 11129, 3740, 7564, 5094, 5724, 3379, 4557, 14363, 1950, 3438, 7289, -2039, -4325, -11371, 5825, -10588, 4185, 2088, 1441, 3667, -824, -3734, -3536, -6321, -2637, -14650, 5578, 2636, -3871, -3941, -2875, -9691, 3752, -4631, 1929, 378, -6521, 1850, -1035, 2767, 416, -2603, -903, 800, -4370, -4779, 4189, -3835, 1630, 497, -8275, -5520, -3484, -5770, -6318, 2105, -3642, 2466, 2462, -10516, -3399, 10325, 2545, -1506, 6234, -5354, 512, 1296, -2696, -380, -7351, 2612, -3968, -4950, 48, -3877, 2146, 6835, -2228, -367, -2657, -4619, -4188, -1014, 997, 2063, -3701, 1001, -5735, -315, -401, 5075, -5219, -803, -1351, 7193, 7939, -7382, 1660, 3247, 640, -3905, -1270, -4137, -227, 5603, -796, 677, -2063, -19, 6649, -2040, -1083, 3050, -7337, -1824, -1130, 1462, 7070, -4640, 835, -2825, 9293, -6864, -14212, -6064, 2482, -7048, 3417, 465, -332, -1318, 1896, -2211, 1040, -502, 4245, 2321, -175, -2234, -9308, -10075, -2300, -3800, 949, -4337, -1432, 1425, -1929, -11007, 176, 5862, -9452, 7096, 876, -11751, -9136, -6978, -476, 6621, -5076, -4000, -6922, 866, -1084, -7728, -167, -6896, 3288, 69, -4308, -2333, -6988, -32, 2540, 5274, -316, 590, -4043, -1224, 5622, 5071, 5057, 3248, 9452, -1093, 2915, 6759, -4220, -2738, -825, 2020, 9831, 1305, 9628, 5892, 3137, -1042, 5853, 6368, 246, 1659, 7664, -2388, -3139, -6002, 3206, -6458, 5590, -843, 2996, -375, -3483, 1195, 3537, -4365, 4601, -9157, 1314, 8602, -7080, -2366, -6487, -728, 3376, -2077, 5558, 3792, 1673, -235, 1069, 7002, 2850, 1731, 1049, -987, -5663, -12113, 3129, -10127, 2781, -2037, 2470, 3287, -1488, -2726, -4387, -6016, 1436, -6240, -333, -2605, -4706, 7711, -1855, -5588, 2166, -9462, 8551, 203, -6697, 7452, 2669, 7674, -3445, -6375, 473, -12861, 298, -3145, -2311, -3504, 3145, -3922, -4786, -163, 3721, 6145, 8596, 376, 2713, -5072, -1973, 2336, -3160, -8131, 980, -2214, 6883, 4011, 1099, 1399, -798, -4713, -806, 2276, 4416, 8815, 2666, 1379, -2139, -8864, 51, -785, 8877, -2962, 655, 1881, 1301, -4510, -2950, 4686, -2930, 5257, -1483, 895, -5338, -4672, 995, 4045, 2523, -374, -3461, -1261, 1293, -4326, 608, 180, 1096, 1275, -1735, 1138, -6222, -915, -763, -2255, -916, 1348, -751, 3041, 416, 2430, 6704, -39, -570, 1768, 6162, -214, -11011, -46, 522, 2646, -2333, -3674, -9206, -1270, 628, 1823, -1074, -3914, 2375, 2461, 2462, -8561, -4799, -4543, -3317, -3619, -254, -183, -973, -3180, -4179, 3606, 520, 436, 4350, 3972, -8087, 382, -475, 5963, 1025, 2971, -6815, 662, 705, 6965, 962, -20262, 6024, -6340, -13074, -4993, 4276, -5852, 373, -1929, 4127, -1829, 4923, -2260, 3011, 825, -4406, -170, -2694, 6141, 2985, 1675, -16463, -12537, 1490, -6056, -2577, 5950, -15931, -2433, -4620, 4926, -299, -13808, 1767, -6698, -6708, -5644, 2775, -1290, 3880, -1897, -543, 2170, -897, 69, 2630, 4236, 4653, 497, -1167, 4234, 6752, 4203, -16786, -2340, 3527, -4401, 1506, 1670, -5184, 2902, 314, 4182, 5873, -5726, 3561, 794, -12792, -4429, 1894, -1189, 2413, -2077, 2041, 742, 3078, 1409, 4427, 886, -10197, -3227, 92, -10739, -373, -9539, -729, -3760, -958, -8342, -8246, -7125, -4633, -3845, -297, -2009, -1750, 877, 5628, 3890, -6768, -5366, -395, -4782, -1245, -12984, 2281, -8831, -250, 1024, -3433, -1869, -4942, -2456, -5259, 953, -3674, 6686, -2402, -1580, -1459, -4963, 1295, -3289, 2023, -4499, -57, -750, -600, 587, -3169, -3718, -2631, -4876, -5911, -2178, -821, 1177, -3580, -2939, 1679, -2871, -927, -1342, -5751, 7080, 219, 6233, -4695, 7443, -969, -7778, -1201, 3874, 7164, 3508, -1948, 8219, -4368, 9424, 3410, 5552, -2179, 7112, -2060, -1662, -4317, 505, -3335, 9659, -41, 8861, -5821, 753, -3460, -7432, 1262, -2579, -1634, 569, -2555, 2265, 669, -1512, 1003, -4369, -878, -1699, 377, 1267, -1253, -1338, -311, -1053, -3146, 981, -2813, -2128, -3497, -1806, -3257, -2402, -2612, -167, -2003, -815, 991, 1897, 2600, -3451, -735, 289, -2330, -3557, -1141, -614, 2066, -185, -1220, -602, 1950, -1537, -548, 243, -3204, 1496, -1659, -2040, -2045, 393, 1876, 1, -2295, -3215, 302, 1304, -280, 1170, 1246, 1128, -2186, 1435, -867, -1721, 403, -2169, 58, -1939, -131, -372, -2043, -2669, -2925, -2271, 69, -2837, -2829, -2905, -1273, -4259, 19, -2115, 362, 430, -511, 691, -3405, -2703, -1840, -3200, 815, 1014, 1962, -441, -7496, -597, -570, -2034, 8211, 386, -8727, 6794, 1886, -9764, 9563, -1555, 11791, -4715, -3611, 3364, 1563, 9860, 4690, -467, 7914, -3041, 1233, -5249, 2, -3231, -13108, -6075, -4138, -2224, -1737, 2762, 325, -9688, -2421, -6313, 230, 6216, -228, -2320, 631, -711, 1218, -2485, 3318, -4309, -1454, 7073, 626, -1365, 1904, -3736, 3801, -3218, -2012, -2500, -1350, -5816, -1998, 2926, -4771, 3840, -1580, -2168, -3489, -2616, -6193, -1701, 4463, 10481, -8333, 4787, 1317, 4808, 1134, -818, 356, -1858, -4735, 5832, 5206, 4269, 968, -5377, 910, -12182, -3594, 1382, -387, 1688, -2225, -3884, -7291, -1312, -5389, -443, -1285, -7899, 7211, -243, -9144, 6599, 125, 12024, -247, -6457, -6662, 1823, -551, 3120, -996, -10571, -2483, -1741, -4900, -4373, 160, 3304, 3180, 4407, 5958, 1712, 4333, 1139, -5303, -495, 370, -4099, -4825, 2152, 1622, 2060, -4827, -190, 2411, -13963, -2442, 3881, -3423, -5720, -5726, 3646, 3120, -10044, -7766, -23, -346, 484, -1939, 7603, -240, 3363, -2465, 2994, -4877, -1140, -746, -48, 3515, -1474, -1751, 5072, 7432, 1429, -2540, 8554, 3382, 6872, 5048, -6277, -3468, -1560, -4633, 5041, 5334, -1015, -1080, 845, -430, 15, -71, 4293, 1160, 2333, 5777, 2392, 2702, -927, -4588, 1422, -1277, -8455, -9825, -464, -1864, -5546, 4027, 2854, 6602, 7685, 504, 4358, 3972, 2680, 6789, -2624, 3267, 726, 868, 5610, -400, -3504, 2221, 18127, -8614, 4840, 4424, -1782, -2352, 1440, -311, 256, -4528, -7192, -16514, -5116, 1269, -6518, 972, 6691, -813, 15079, 2982, -2593, 1994, -1861, 3488, -1455, 2480, -3892, -5460, 3356, -4953, -14237, 1813, 6390, -1739, -1404, 3227, -4529, -3102, -3004, 834, -3233, -9683, -10681, -19100, -5961, -6246, -2696, -262, -1157, 2291, 408, 8812, -1851, -974, -360, 7078, -693, 2604, 3824, -8230, 4410, -4540, -13618, -7271, 10463, -4022, 1411, -1108, 1336, -11338, 676, -5255, -555, 2425, 1737, 1620, -3335, -3231, 770, -5369, -430, 3826, -3396, -1866, 23, 3502, 5722, 2084, 6443, 6917, -7117, 8721, -5121, -3232, 4952, 2049, 5296, 2501, -6135, 5355, -523, -3480, 9766, 6641, -583, -3214, 2964, 2063, -4972, -2851, -2017, -1263, 2932, -1584, -6048, 2994, -883, 1026, 4257, -1072, 1521, 4883, 2593, 3983, -2327, -1023, -3057, -1537, 4487, -2836, -6301, 1973, -2206, 82, 2103, 1103, -3644, -5085, -1120, -64, -799, -4109, -5075, 2568, 186, -8251, 481, -7616, 2142, -2338, -1293, 3169, 3133, 324, -3178, 1780, 1805, 1356, -3335, 2825, 4739, -6309, -6722, 2968, -2650, -4176, 3016, 4894, -1737, -828, -1741, -13, 1554, 2090, 2493, -2366, -761, -1828, 337, -624, 956, 1991, -839, 1579, -1389, 1685, -9823, 146, -6761, -1748, 2417, 4605, -9426, 2528, -7084, 3897, -4646, 3710, -5088, 527, 4257, -4241, 3868, 3192, -2624, 600, 774, -5642, 6871, -4030, -1129, 293, 313, -694, -3677, -123, 290, 3210, -3038, -2578, -5332, -3646, -854, 3030, -5691, -252, -8945, -3752, -3682, 2107, -3223, -1680, -1110, -5590, 2597, 5383, -2666, -3689, 2107, -2594, -1017, -7758, -8294, -1713, 2724, -12659, -4994, -10529, 1303, -2501, -4829, 25, -9041, -2271, 2786, 3765, -6259, -5871, -3122, -797, -4212, 4208, -602, -1197, 3760, 889, 419, 5352, -960, -2850, 2302, 3371, -3847, -6523, -8670, -3628, -494, 8366, 6667, 2282, 2479, 3397, -7245, 4663, -5458, 2091, 2334, 131, -144, 1155, -3119, -1435, 3075, 1692, 1610, 3479, -2006, -2603, -3113, -1807, -1144, 555, 3025, -1586, -12817, -2134, -1724, -3798, -212, -4676, 3997, -4435, -1097, -1659, -7149, 6193, -3558, -513, -3214, -2813, -7956, -6052, -1664, 143, 3688, -4657, 3467, 413, -1532, 263, 2752, 4020, -5346, -3945, -376, 3521, -12979, -9632, 1414, 886, 2524, -3875, 5616, -4073, -49, 4369, 1416, 4353, -6314, 2688, -2556, 470, -1705, -2031, -2156, -1100, 2133, -5163, 43, 3973, 2126, 5025, 7686, 5236, -4836, -2744, -973, 4852, -208, 226, -11908, -3634, -11292, 4775, 1730, 2259, -9320, -3588, -5072, -1229, -3853, 5474, 5756, 183, -5680, -10353, -13022, -13444, -6450, 2879, -9945, 2702, -2982, -3071, -6680, 1101, -133, -15180, 5128, 2146, -11761, -872, -262, 5738, 1865, -8968, 1556, -8186, -2909, 735, -2809, -4222, -1138, -773, -1032, -8309, -3631, -2988, 6992, -2459, 3411, 273, -1978, 1558, -606, 3769, 2536, -3383, 2750, -2966, 375, 7277, 4108, -3813, 4730, -1979, 4892, 6477, -574, 6079, -3757, -2564, 5121, -2034, -4390, 1831, -1507, -4556, -9078, -6598, 1202, 263, -21, 1774, -4931, -2622, -1437, -2008, 2974, 4772, -3113, -5821, -6950, 4515, -2630, -3554, -2197, 1153, -4501, -8315, 1046, -4449, -10515, 730, -8459, 3436, -1531, 4791, -68, 103, 122, -7130, -2625, -4238, -2774, 3429, -4034, 2458, -2255, -2839, -5211, -8061, 1789, -10068, 1983, -3724, -4052, 2913, -415, -526, 1704, -5044, -6784, -5174, -12483, -727, 4730, -2081, 75, -2468, -6257, -8545, 5395, 3841, -508, 635, 1094, -2929, -1637, 189, -358, 5615, -2365, -3833, -167, -546, 2680, -11306, 3112, -5383, -5441, -361, -7204, 4554, -5818, 5266, -4631, -202, -5266, -7124, 1066, 1397, -1173, -990, 4548, -1825, -4048, -9871, -5440, 3108, -2785, -2501, -4401, -5104, 725, -2997, -10615, -431, -10291, 13991, -1163, -2244, 1803, 162, 594, 4059, 1998, 4614, -4058, -1618, 12501, 5715, 14902, 1126, -322, 2674, -2064, -6789, -9612, -2394, -7411, 3372, -3716, 881, -1385, -5926, -6995, -1803, -7422, -9110, -6562, 5340, -7178, 2569, 65, -952, -1242, 2389, -3317, 7727, -3626, -6524, 6423, -293, 1653, -4703, -8813, -1000, 765, -3599, 1048, -1828, 2390, 311, 1245, -3889, -741, 5411, -178, -5617, 3253, -10387, 5772, 1751, 1980, -9235, 2800, 5404, 615, 2991, 2196, 1962, -1914, -2497, 7419, 7278, 3614, -861, -3153, 1274, -10452, 4071, 5788, 166, 2300, -4435, 3128, 3026, 494, -3486, -1986, -4239, 923, -554, -2624, -4288, -903, -3014, -116, 332, -2584, 1488, -1496, -1942, 396, 977, -273, -4429, 414, 673, -2471, 1435, 2080, -2412, -3783, -301, 1161, 1337, -2972, 448, 2275, -1122, 504, -4003, -4395, -882, 318, -3679, -3839, 548, -1245, -3414, -1915, -349, -835, 1004, -3992, 1582, -2966, -3509, -2987, -455, -949, -4583, -981, -1438, -2173, -3846, -2887, 1602, -807, -652, 1931, -4718, -527, 1273, -452, -3220, 532, -3713, 635, 1796, -410, -1654, 1559, -1313, -1049, 1620, 1526, -4364, -942, -3171, 286, -616, -420, -304, -2114, 2460, 942, 1408, -3487, -4124, 5, 0, 2287, -3506, 861, 2573, -659, -1040, -1358, 1060, -1373, -110, -1021, 1374, -3312, 2594, 405, -3205, 1608, 2525, -1074, 1011, 324, 1195, -2305, -2954, -1686, 1169, -1385, -2109, 548, -2492, -489, -2559, -697, -1155, -3666, -3748, 1173, -3612, -2426, -608, -1591, 1737, 289, -1986, 730, -2194, -1446, -2484, -4761, -675, 3375, -647, 957, -1362, 1579, -2580, 484, -1349, 503, 5, -3836, 573, -1157, 1590, -3165, 1824, -1934, -2555, -2696, -718, -3107, -1764, -1461, 372, -3419, -437, -1271, -370, 792, 2462, -480, -907, 669, -4058, 917, 556, -2731, -1739, -866, 20, -2287, -424, -877, -3378, -458, 2357, -2012, 1511, 3742, 1903, 5555, 6744, 4790, -3134, 3946, -9789, -6075, 821, -507, 2886, -1659, 2901, 8145, -773, -9126, 2974, -3503, -184, 4239, 3969, -4853, -8529, -5230, 1264, -5531, -1963, -5271, 4662, 611, -2594, -1417, -104, 3375, 5482, 1356, -872, 337, -12853, -3822, -1869, 4242, -12334, -1616, -978, 3522, -4017, -3578, 1901, -322, -2889, -5364, 4987, -7922, -1181, 1838, -1257, -5210, -2952, -3489, 1863, 5247, 735, 1233, -563, 4981, 4379, 2499, -4035, -4649, -8201, -1102, 4357, 3684, -8222, -1237, -2531, 4612, -941, -5130, 6390, 2630, -9281, -2866, 6940, -8726, -3779, -3345, 25, -1072, 448, -3007, 4416, 2400, -5304, 2455, 2602, -2213, -6064, -3139, 6730, -11878, -1728, 2481, 7477, -248, -4257, 1030, -8333, 2856, -3150, 10507, 1745, 4172, 145, -2552, -4272, -1803, -5455, 4714, -3853, 5388, 4433, -5238, 3876, -3538, 1197, -10374, -1418, 7424, -4539, 3715, -1958, 1054, 4247, 9320, 1151, 7314, 6162, 972, -855, -1795, 3469, 7964, -3195, 3554, -1738, -713, -5006, 861, 2947, 4805, 7412, 3210, -126, 1753, -4460, 1286, 1789, 5937, -2819, -2558, 4978, -3784, 908, 12733, -8210, 2438, -12911, -3810, 10283, -3382, 876, -2192, -1464, -1423, 1090, -7661, 910, 4210, 7225, -3256, -6474, -20236, -896, -13352, -1133, -3840, -262, -3549, -2791, -522, 621, 2440, 5042, 3315, -5880, 1155, -1182, 1698, 2106, 1205, -4457, -298, -5990, 5012, 6520, -12087, -784, -13961, -3297, 3631, 682, 1524, -884, 1079, 4339, 2425, -5342, -3945, -5775, -2558, -5621, -720, -1974, 3435, 3286, 261, -5576, -2097, 5070, -5052, -1856, -4444, -8762, -5950, -14539, 4274, 2221, -11131, -6163, -10079, -3261, 2275, -4900, -3728, 575, 1246, 2357, -2527, 1956, 1366, -3198, -5733, -445, 1533, 2432, -658, 6617, 351, -3056, -1117, 299, -12899, -1449, 874, -6449, -4170, -6961, 5204, 5860, -7525, -4801, -4979, -1882, 3005, -3187, 2586, -1660, 6761, 1655, 3292, 2334, -3159, -2040, -3106, -2087, 1455, 4533, 6311, 2214, -3153, -5968, 7533, 182, 3620, 1124, 1695, 5332, -3309, -1330, 5844, 837, -5041, -4883, -12795, 1247, 3110, 1857, -605, 2769, -2891, -874, -1445, 4636, 319, -5242, -3010, -3717, 1562, 4940, 3989, 2771, 1892, 544, 7383, -3861, -4708, 1297, -1372, 89, -8461, 2339, -1233, 2662, -2893, -1389, -8768, -6173, 5544, 5886, -8096, -2061, -3323, -2399, -2102, 1984, -6655, -7587, -3190, 863, -1345, 1060, 6680, -4121, 4941, -2938, 2137, -13977, -2661, 2248, -3119, -4720, -5709, -6744, -1865, 1615, -8659, -4134, -4331, -3739, 4695, 7438, -10539, -4514, -6904, 289, -7022, 7507, -2752, -7573, -2080, 2331, 1898, 6217, -2331, -4031, 4732, 2507, -753, -383, -2726, -4883, 4529, 6242, -434, -145, 2965, 5947, -16309, 3786, -1359, 1917, 5340, 2407, 908, -2043, -9034, 5894, 1516, 3285, 440, 3586, 4745, 2121, -522, 3911, -668, 835, 5903, -108, -956, -4889, -10087, -3881, 3637, 3868, 4271, 1442, -3216, 3347, -9539, 463, -2125, 2344, 4784, 1833, -3658, -6507, -9312, -3479, -309, -5268, -3065, 1345, -796, 1900, 2242, 3298, 5030, -5488, 5309, 4061, -4774, -10040, -2859, -4670, 1325, -5132, -1781, -7470, -2524, 3029, -5187, 3882, -7510, -956, -185, 715, -7450, -6359, -8630, 2967, 291, -501, 1724, 8083, 1902, -2241, -7055, -4934, -3370, -3282, -6545, -3434, -6251, -2458, -3718, 6315, -5159, -1439, -4759, 409, -2477, -7149, 4894, -3626, 455, -4873, -10269, 1606, -3177, 3540, -2006, -3926, -3608, -3553, -5520, -6424, 2262, 2159, 1573, -5070, 3943, -1384, 3940, -6282, -5216, 2743, -11421, 6727, 2297, -2846, -3590, 289, 6836, 2512, -2770, -5594, 5742, -4672, -6598, -2389, 6699, -5820, 4688, 607, 3440, -2953, 2962, -4679, -7806, -4730, 5094, 1237, 1686, 2743, 3751, 6408, 1728, -3845, 2798, 6659, 2865, -7037, 3193, -6441, 6125, 5289, 3479, -1153, 3218, -5157, -5216, 5298, -2311, -11358, 6271, 6559, 6802, -3162, 2064, -489, -3268, -5767, -3424, 3025, -325, -76, -1335, 334, -2540, -9416, -5132, 884, 1554, -2388, -117, -5516, 3223, 4892, -6933, 8473, -779, -4451, 1687, 3957, -4182, -5658, -6168, 4257, -589, -1047, 3952, 5815, -1839, 387, 505, -3257, -1567, 15, -2489, -5120, -6668, -3849, -6958, 3553, 4792, -3820, 3333, -3286, 3384, 2214, -5797, 3401, -2007, -1711, -5761, 2420, -584, -637, -2483, 5028, -2371, -6668, 4485, 1980, -1733, 4958, -4015, 1705, -772, 3864, 1514, -5963, 2273, -6198, -7218, 1393, 1686, -1687, 1154, -3323, 295, 733, -4262, 6353, 1684, -8465, -1622, 6275, -7619, -3911, -1956, 2025, 1283, -2797, 285, 8172, -4870}
#define CONV6_BIAS {2326, -13148, -5219, 1358, -5878, 1639, -5254, 2050, 2948, -1389, 1013, -1943, 1756, -1779, 2159, -4528, -4770, -654, 1489, -4819, -11497, -5278, 3023, -1815, -3321, 2598, -111, -3060, 2469, -7826, 846, 729}
#define CONV6_BIAS_LSHIFT 10
#define CONV6_OUT_RSHIFT 15

